#ifndef CONV1_WEIGHT_H
#define CONV1_WEIGHT_H

#include <ap_fixed.h>
typedef ap_fixed<16, 8> fixed;

fixed conv1_weight[72] = {
  -0.22265625,   0.4375,   0.2265625,   0.16796875,   0.2109375,   0.5,   -0.11328125,   0.67578125, 
  0.2265625,   -0.5546875,   0.23828125,   0.23828125,   0.37890625,   0.83203125,   0.43359375,   0.55859375, 
  -0.0625,   -0.62890625,   0.73828125,   0.60546875,   0.4296875,   0.58203125,   0.16796875,   0.2734375, 
  0.484375,   0.05078125,   0.2734375,   -0.06640625,   0.078125,   0.53515625,   -0.3203125,   -0.859375, 
  -0.42578125,   0.49609375,   0.32421875,   -0.06640625,   0.57421875,   0.72265625,   0.46484375,   -0.28125, 
  0.2890625,   0.08984375,   -0.93359375,   -0.921875,   -0.1640625,   0.34375,   0.17578125,   -0.3984375, 
  0.203125,   -0.36328125,   -0.54296875,   -0.9140625,   -0.515625,   -0.046875,   -0.0546875,   0.48828125, 
  0.640625,   0.38671875,   0.1171875,   0.453125,   -0.453125,   -0.44140625,   0.02734375,   -0.8359375, 
  -0.18359375,   0.73828125,   -0.69140625,   0.1328125,   0.546875,   -0.44140625,   0.296875,   0.171875, 

};

#endif // CONV1_WEIGHT_H
