#ifndef CONV2_WEIGHT_H
#define CONV2_WEIGHT_H

float conv2_weight[1152] = {
  0.02255151979625225,   0.06662988662719727,   0.14267686009407043,   -0.1705712229013443,   -0.02659452334046364,   -0.33325332403182983,   -0.017339760437607765,   -0.08879685401916504, 
  0.11660521477460861,   0.07822582125663757,   0.26611262559890747,   0.4288928806781769,   -0.2331092208623886,   -0.018998682498931885,   -0.0859236791729927,   -0.14237158000469208, 
  -0.14050084352493286,   0.05375995859503746,   0.14998555183410645,   0.10789543390274048,   0.08350426703691483,   0.11728092283010483,   0.04941772297024727,   -0.12424232065677643, 
  -0.3360491096973419,   -0.08106239885091782,   -0.16590601205825806,   0.4761136770248413,   0.06083163246512413,   -0.37016335129737854,   0.7229835391044617,   0.28076452016830444, 
  -0.3424495458602905,   0.28397196531295776,   -0.18120065331459045,   -0.6373214721679688,   -0.010807470418512821,   -0.16823090612888336,   0.08070188015699387,   0.49368852376937866, 
  0.24799199402332306,   0.2505064308643341,   -0.06063232570886612,   0.003746815724298358,   -0.3359808921813965,   -0.16694152355194092,   -0.10865487158298492,   0.026379859074950218, 
  -0.16006878018379211,   -0.01998235657811165,   0.3631402254104614,   -0.03087550960481167,   0.12831483781337738,   0.08832599967718124,   0.04071268439292908,   0.19309024512767792, 
  0.24109280109405518,   0.11160977184772491,   0.1604996621608734,   -0.10319739580154419,   -0.40809133648872375,   -0.404984712600708,   -0.4704402685165405,   -0.28792232275009155, 
  -0.07675965875387192,   -0.011295424774289131,   -0.17176705598831177,   -0.2929713726043701,   -0.28853100538253784,   0.044372063130140305,   -0.036568012088537216,   0.09735585004091263, 
  -0.34130609035491943,   0.009648483246564865,   -0.03289590775966644,   0.15457095205783844,   0.021725419908761978,   -0.2629684805870056,   -0.09487685561180115,   -0.25978586077690125, 
  -0.03347765654325485,   -0.11192847788333893,   0.20171035826206207,   0.27741822600364685,   0.2179485261440277,   0.31003764271736145,   -0.1043253242969513,   0.2347024828195572, 
  -0.25412091612815857,   -0.14824548363685608,   -0.23584890365600586,   -0.02992590330541134,   0.12928906083106995,   0.038127731531858444,   0.13855716586112976,   0.05630950257182121, 
  0.04598946496844292,   0.020946497097611427,   -0.258992463350296,   -0.07772692292928696,   -0.006523015908896923,   -0.053089141845703125,   0.004816301632672548,   -0.5578303933143616, 
  -0.36368033289909363,   -0.06509803980588913,   -0.11526168882846832,   0.23537369072437286,   0.3436344265937805,   -0.11838027834892273,   -0.006961017847061157,   -0.4301018714904785, 
  0.06443030387163162,   0.18230211734771729,   0.22936230897903442,   0.17290696501731873,   -0.08640501648187637,   -0.1485341340303421,   -0.07145194709300995,   -0.03644512593746185, 
  -0.28671592473983765,   0.050304848700761795,   0.008322449401021004,   -0.05968333035707474,   -0.01863018423318863,   -0.2082817554473877,   -4.4535929191624746e-05,   -0.24582812190055847, 
  0.16291126608848572,   -0.13324207067489624,   0.13827306032180786,   0.08221477270126343,   0.1213008239865303,   -0.06808921694755554,   -0.11652832478284836,   -0.18732908368110657, 
  0.2184428870677948,   0.00287612690590322,   0.31992173194885254,   0.2001158893108368,   -0.23049117624759674,   -0.20285549759864807,   -0.24028882384300232,   0.2132594734430313, 
  0.3155602812767029,   -0.08331746608018875,   -0.3808390200138092,   0.13042829930782318,   0.17721088230609894,   -0.13549743592739105,   0.06334397196769714,   0.10564514994621277, 
  -0.08635371178388596,   -0.03204421326518059,   0.13867326080799103,   -0.23401382565498352,   0.03921084478497505,   -0.004083120264112949,   -0.2750720977783203,   -0.1366204172372818, 
  -0.1104513630270958,   0.11406907439231873,   0.1401885747909546,   -0.05519971251487732,   -0.4539029896259308,   0.06276019662618637,   0.09260966628789902,   -0.22289539873600006, 
  -0.03408403322100639,   0.1835034042596817,   -0.06164456158876419,   0.1414712518453598,   0.46381065249443054,   -0.048290956765413284,   0.21080127358436584,   0.2044539451599121, 
  0.08887627720832825,   0.6277716159820557,   -0.1059008464217186,   0.15953004360198975,   0.00749832671135664,   -0.04900026693940163,   -0.045859068632125854,   0.24420596659183502, 
  -0.4994036853313446,   -0.11534075438976288,   0.0387733019888401,   -0.15101878345012665,   -0.1166192814707756,   -0.4972303509712219,   -0.33467671275138855,   -0.13553564250469208, 
  -0.6889585256576538,   -0.6852207779884338,   -0.04566417261958122,   -0.18071526288986206,   -0.39624902606010437,   -0.17342427372932434,   0.2213251143693924,   -0.22518956661224365, 
  -0.15418380498886108,   0.39415231347084045,   -0.2576499879360199,   -0.34282174706459045,   0.1383315473794937,   -0.003975014667958021,   -0.04009232297539711,   0.3651559054851532, 
  0.0998079925775528,   0.34436771273612976,   0.7495296001434326,   -0.16984732449054718,   0.3479136824607849,   0.7291017770767212,   -0.23036694526672363,   -0.06548744440078735, 
  -0.06708235293626785,   -0.3923220932483673,   0.36861535906791687,   -0.21527014672756195,   0.11983086913824081,   0.19388310611248016,   -0.06842046976089478,   0.1962767392396927, 
  0.12884366512298584,   0.11056964099407196,   -0.47689446806907654,   0.15513713657855988,   -0.055016063153743744,   -0.1783091127872467,   0.26536598801612854,   -0.28041157126426697, 
  0.16497117280960083,   0.1384180784225464,   0.3056097626686096,   -0.38854658603668213,   0.04337524250149727,   -0.22276514768600464,   -0.11877162754535675,   0.13400748372077942, 
  -0.4186844229698181,   -0.033136963844299316,   0.13295254111289978,   -0.19339948892593384,   -0.836255669593811,   -0.5568991899490356,   -0.936846911907196,   -0.6347625851631165, 
  -0.1823161095380783,   -0.5938186645507812,   0.1011357381939888,   0.31333163380622864,   0.08419787883758545,   -0.1608864665031433,   -0.24449793994426727,   0.11489832401275635, 
  -0.3676173686981201,   0.06579872965812683,   -0.14753615856170654,   0.01887236163020134,   -0.07502444088459015,   0.01567615568637848,   0.2814478576183319,   0.05033190920948982, 
  0.1632499247789383,   0.10819371789693832,   -0.04435229301452637,   0.18719367682933807,   -0.028713364154100418,   0.009209553711116314,   0.06761898845434189,   -0.5157983303070068, 
  -0.05962406471371651,   -0.3526941239833832,   -0.12589311599731445,   0.30730512738227844,   -0.45417511463165283,   -0.10754062235355377,   0.18751025199890137,   -0.052902717143297195, 
  -0.09188953042030334,   0.14572674036026,   -0.01716451905667782,   0.035026054829359055,   0.14879941940307617,   0.21954110264778137,   0.08215028047561646,   0.18439516425132751, 
  0.11873356997966766,   0.10576034337282181,   0.13350020349025726,   -0.11458306759595871,   0.06573458015918732,   -0.43853119015693665,   -0.10695295035839081,   -0.05511411279439926, 
  0.0812954381108284,   0.0269978828728199,   0.273170530796051,   0.2230759561061859,   -0.24917197227478027,   0.07965407520532608,   -0.29751259088516235,   -0.3104257583618164, 
  -0.2234928011894226,   -0.13550962507724762,   0.2598063349723816,   0.11223955452442169,   0.24401018023490906,   -0.17653661966323853,   0.04049219936132431,   -0.3606972396373749, 
  -0.3179120719432831,   -0.09894891083240509,   -0.23739370703697205,   -0.25884193181991577,   -0.15240167081356049,   -0.5332784056663513,   0.3414947986602783,   -0.11703011393547058, 
  -0.5379752516746521,   0.7261740565299988,   0.3350794315338135,   -0.31603580713272095,   0.21446996927261353,   -0.13436000049114227,   0.09547671675682068,   0.14689572155475616, 
  0.14102083444595337,   -0.029037345200777054,   -0.06957989931106567,   0.14168694615364075,   -0.1981220692396164,   0.03817381337285042,   0.015836471691727638,   0.11184979230165482, 
  -0.042153164744377136,   -0.08699195086956024,   0.16859184205532074,   0.017462173476815224,   0.017139071598649025,   0.1305757761001587,   0.16583846509456635,   0.09493564814329147, 
  0.105206698179245,   -0.09186778962612152,   0.06630119681358337,   -0.3816453218460083,   -0.3988095223903656,   -0.23829257488250732,   -0.2726181447505951,   -0.09502044320106506, 
  -0.000604575383476913,   -0.020639117807149887,   0.218842014670372,   -0.07792661339044571,   -0.260991632938385,   -0.012190423905849457,   -0.01153207290917635,   0.05327099561691284, 
  -0.07172347605228424,   0.34497204422950745,   -0.07759785652160645,   -0.30481940507888794,   0.3341695964336395,   -0.05657912790775299,   -0.11818525940179825,   0.08979129046201706, 
  -0.04179324209690094,   -0.1667378842830658,   -0.015663309022784233,   -0.05489690601825714,   -0.19615629315376282,   0.03932459279894829,   0.09588441997766495,   -0.3324376344680786, 
  0.09270146489143372,   0.08097265660762787,   0.08645648509263992,   0.2612636089324951,   0.14084936678409576,   -0.39122065901756287,   0.04446070268750191,   0.1030670702457428, 
  -0.4292949438095093,   0.05099901929497719,   0.11556391417980194,   0.5907683968544006,   0.05165507271885872,   0.4400978684425354,   -0.12323945015668869,   0.08843027800321579, 
  0.09979312121868134,   -0.30314362049102783,   0.18159998953342438,   -0.07991975545883179,   0.346973180770874,   0.32929661870002747,   -0.25723618268966675,   -0.05086137354373932, 
  0.15598249435424805,   -0.3613829016685486,   -0.026363158598542213,   -0.3212741017341614,   0.06377021223306656,   0.013907033950090408,   -0.7738845348358154,   -0.6770510077476501, 
  -0.12954935431480408,   -0.4564802646636963,   -0.5986250042915344,   0.07608413696289062,   -0.04633995518088341,   -0.001296862494200468,   0.2414812445640564,   0.35237669944763184, 
  -0.20975355803966522,   -0.24027717113494873,   0.27679553627967834,   -0.08843144029378891,   -0.3876102864742279,   0.1551586389541626,   0.16147901117801666,   0.40855512022972107, 
  0.013177490793168545,   -0.5409084558486938,   0.05893884599208832,   0.14250749349594116,   -0.16241182386875153,   -0.030992824584245682,   0.09870363026857376,   0.04504747316241264, 
  0.12224109470844269,   0.1321732997894287,   -0.3060106933116913,   -0.10802482813596725,   0.1158566027879715,   -0.1663983166217804,   -0.1597297191619873,   -0.14979705214500427, 
  0.14379632472991943,   0.2267112135887146,   0.031916696578264236,   0.1546678990125656,   0.11555671691894531,   -0.12845498323440552,   -0.05287801846861839,   0.08082407712936401, 
  0.051296666264534,   0.0956336185336113,   0.23259998857975006,   0.07692112028598785,   -0.08008116483688354,   0.10750037431716919,   -0.060596611350774765,   0.012730710208415985, 
  -0.13897886872291565,   0.0026002649683505297,   0.1287790685892105,   -0.3031103014945984,   0.0783037468791008,   0.056293826550245285,   0.013116403482854366,   0.4169771075248718, 
  0.622198224067688,   0.04034733772277832,   0.8038469552993774,   0.4165356159210205,   -0.30684754252433777,   -0.29413336515426636,   0.1588902622461319,   0.06213231384754181, 
  0.17029525339603424,   -0.19746018946170807,   0.03323821350932121,   0.4340458810329437,   0.40048831701278687,   -0.34121283888816833,   -0.42177876830101013,   -0.08108127862215042, 
  -0.5843582153320312,   -0.8783320188522339,   -0.658054530620575,   -0.3003544509410858,   -0.5117190480232239,   -0.30938440561294556,   0.05797192454338074,   0.09421135485172272, 
  -0.006518007721751928,   0.20469804108142853,   0.043636973947286606,   -0.15595003962516785,   0.09170369803905487,   0.1832146942615509,   0.282978355884552,   -0.04704742133617401, 
  0.00711470004171133,   -0.03607727587223053,   -0.21493476629257202,   -0.2555755078792572,   -0.44497376680374146,   -0.23272423446178436,   -0.08604208379983902,   -0.17034193873405457, 
  -0.15514340996742249,   0.07011456042528152,   0.06405270844697952,   0.2293427288532257,   0.07060402631759644,   -0.08171474188566208,   -0.13268139958381653,   -0.3916309177875519, 
  0.01907704770565033,   -0.03486338257789612,   0.11033428460359573,   0.198783278465271,   0.2396705448627472,   0.35597068071365356,   -0.07012063264846802,   0.113854318857193, 
  -0.28322434425354004,   -0.20763736963272095,   -0.22533835470676422,   -0.02334163896739483,   0.15483416616916656,   -0.08295338600873947,   0.07196920365095139,   0.14717695116996765, 
  0.10105931013822556,   -0.27022528648376465,   -0.2202528417110443,   -0.07177586853504181,   -0.050610095262527466,   -0.020190874114632607,   -0.24646127223968506,   0.15844014286994934, 
  0.1981746405363083,   0.16156108677387238,   0.3225340247154236,   0.1766069084405899,   -0.3452560603618622,   -0.4508667290210724,   -0.11456694453954697,   -0.47466719150543213, 
  0.23286129534244537,   0.23939374089241028,   0.427901953458786,   0.5241530537605286,   0.10761208087205887,   -0.09879876673221588,   0.10007842630147934,   0.05691792815923691, 
  -0.08392955362796783,   -0.10719487816095352,   0.09577328711748123,   -0.17035037279129028,   -0.054869819432497025,   -0.07035195082426071,   -0.2105330228805542,   -0.2682717442512512, 
  0.03123408928513527,   0.08084084838628769,   0.26435473561286926,   -0.04889548197388649,   0.19990350306034088,   0.08814607560634613,   -0.06033777445554733,   0.12043909728527069, 
  0.10420331358909607,   0.1964704692363739,   0.24763520061969757,   -0.0909380316734314,   -0.41390669345855713,   -0.19050711393356323,   -0.4545578360557556,   0.06780286133289337, 
  -0.42788806557655334,   0.20312842726707458,   0.17882908880710602,   -0.09593420475721359,   0.13438740372657776,   0.151839941740036,   0.031727954745292664,   0.2990916073322296, 
  -0.009857251308858395,   -0.3682319223880768,   -0.1872841715812683,   0.3173815608024597,   -0.32217735052108765,   -0.12033826857805252,   0.14447316527366638,   -0.16167880594730377, 
  -0.019231587648391724,   0.17755334079265594,   -0.3888248801231384,   -0.2484361231327057,   0.2824282944202423,   -0.12405234575271606,   0.15852424502372742,   0.048497721552848816, 
  -0.12824812531471252,   0.2184942066669464,   0.13707485795021057,   -0.23636865615844727,   -0.2803879976272583,   -0.1837242990732193,   -0.1810338795185089,   -0.05890710651874542, 
  -0.491131067276001,   -0.008425002917647362,   -0.33991095423698425,   -0.19615723192691803,   -0.06752041727304459,   -0.12584231793880463,   -0.3338877260684967,   -0.1841665506362915, 
  -0.3831654489040375,   -0.2882300019264221,   -0.1275593340396881,   -0.4945763647556305,   -0.317155122756958,   -0.009753293357789516,   0.14141350984573364,   0.0033718759659677744, 
  0.14811493456363678,   0.054486870765686035,   0.014689573086798191,   0.0928037166595459,   -0.10861558467149734,   -0.18708737194538116,   -0.4569120705127716,   -0.09739401936531067, 
  0.09893699735403061,   -0.23354476690292358,   0.1350606232881546,   -0.012631036341190338,   -0.020092029124498367,   0.06966795772314072,   0.018204424530267715,   -0.14684872329235077, 
  0.23711952567100525,   0.2525065839290619,   -0.10842109471559525,   0.20920324325561523,   0.011353910900652409,   0.07416439056396484,   0.18775920569896698,   -0.0025609752628952265, 
  0.30583304166793823,   0.0032410232815891504,   -0.2967093884944916,   0.19559302926063538,   -0.02248654142022133,   -0.30608898401260376,   0.158656507730484,   -0.49071797728538513, 
  -0.12421692907810211,   0.257257878780365,   0.06836157292127609,   -0.18159009516239166,   0.23597943782806396,   0.08492416888475418,   -0.2994644045829773,   0.20247462391853333, 
  -0.09881918132305145,   -0.4024520814418793,   0.22961296141147614,   0.3300017714500427,   0.07205542922019958,   0.2016812413930893,   0.26506632566452026,   -0.24790048599243164, 
  0.29738137125968933,   -0.02156619168817997,   -0.43423622846603394,   -0.35489779710769653,   0.014712191186845303,   -0.22690796852111816,   -0.6117295622825623,   -0.5005768537521362, 
  -0.3049837350845337,   -0.6203542947769165,   -0.7069521546363831,   -0.20839257538318634,   -0.5738617777824402,   -0.20876948535442352,   0.09141755849123001,   -0.40772098302841187, 
  -0.22017128765583038,   -0.039555974304676056,   -0.35426703095436096,   -0.23457901179790497,   0.029193762689828873,   -0.018218768760561943,   -0.10425443947315216,   0.10872749239206314, 
  -0.15301328897476196,   -0.008624302223324776,   0.030746368691325188,   -0.051877088844776154,   0.30568262934684753,   0.24942950904369354,   0.18895941972732544,   0.10678508132696152, 
  -0.1695878505706787,   0.04059547185897827,   -0.17216026782989502,   -0.23695378005504608,   0.09819663316011429,   -0.31039321422576904,   -0.223224475979805,   0.1637854278087616, 
  -0.2446863204240799,   -0.1913839429616928,   0.06724133342504501,   -0.1602364182472229,   0.2638108730316162,   0.047933995723724365,   -0.2954350709915161,   0.1822502166032791, 
  0.006332562305033207,   -0.04728330299258232,   -0.0492447093129158,   -0.14993473887443542,   -0.23302020132541656,   -0.021236125379800797,   -0.22259016335010529,   -0.21407707035541534, 
  -0.028799252584576607,   -0.03249365836381912,   0.07149745523929596,   0.18532730638980865,   -0.024701135233044624,   0.007470221258699894,   0.13015037775039673,   -0.15964123606681824, 
  0.018421659246087074,   0.07303226739168167,   0.20287802815437317,   0.15156987309455872,   0.12052854150533676,   0.17355193197727203,   0.05822652950882912,   0.1836792230606079, 
  -0.23478855192661285,   -0.2066435068845749,   -0.019176166504621506,   0.5001873970031738,   0.6897082924842834,   0.320229172706604,   0.32660600543022156,   0.6197890639305115, 
  0.32886651158332825,   0.10946556180715561,   0.12210038304328918,   0.26064446568489075,   0.024270327761769295,   -0.09492725133895874,   -0.037607863545417786,   0.3211941421031952, 
  0.3570834696292877,   0.4333901107311249,   0.3918970823287964,   0.19024819135665894,   0.13972751796245575,   -0.16090866923332214,   -0.13143308460712433,   -0.299144446849823, 
  -0.32272934913635254,   -0.2957300841808319,   -0.40974873304367065,   -0.006125202402472496,   -0.043600406497716904,   -0.007789342198520899,   0.13989292085170746,   -0.020560044795274734, 
  0.11437665671110153,   0.09680292755365372,   0.08615603297948837,   0.3838077783584595,   -0.13431334495544434,   -0.1065106987953186,   0.09663443267345428,   -0.3748757541179657, 
  -0.3234560787677765,   -0.3055853545665741,   -0.13832631707191467,   -0.3306674063205719,   -0.2971171736717224,   0.00523872347548604,   -0.09630326181650162,   0.13401660323143005, 
  -0.6502460837364197,   -0.05260126292705536,   0.06224362924695015,   0.09175453335046768,   -0.09357143938541412,   -0.2635154128074646,   0.23190660774707794,   0.2297181636095047, 
  0.2964870035648346,   -0.6849532127380371,   -0.19193269312381744,   0.14778099954128265,   0.07682839781045914,   -0.42350679636001587,   -0.27510830760002136,   0.3194628059864044, 
  0.09531677514314651,   0.14165674149990082,   -0.7286460995674133,   -0.17304785549640656,   0.2792763113975525,   -0.257233202457428,   -0.3690326511859894,   -0.41918763518333435, 
  0.3928176462650299,   0.27114784717559814,   0.14955590665340424,   0.8697079420089722,   0.8413143754005432,   0.3868792951107025,   0.3964136242866516,   0.6288900971412659, 
  0.655348539352417,   0.351945161819458,   0.2587595582008362,   0.25510862469673157,   0.11827117949724197,   0.5148653984069824,   0.49643486738204956,   -0.21003758907318115, 
  -0.20362116396427155,   0.07413596659898758,   -0.14534838497638702,   -0.27080219984054565,   -0.13823693990707397,   0.18195663392543793,   -0.04265054687857628,   0.13735918700695038, 
  -0.059225693345069885,   -0.051727499812841415,   -0.031867481768131256,   -0.023878708481788635,   -0.30452248454093933,   -0.27463024854660034,   -0.17462772130966187,   0.4145354926586151, 
  0.37895575165748596,   -0.2776488661766052,   -0.4077502489089966,   -0.4219155013561249,   0.1388365924358368,   0.09480229020118713,   -0.06636200100183487,   0.02864225208759308, 
  0.10116519033908844,   0.07375875860452652,   -0.16201771795749664,   -0.21700312197208405,   -0.09193580597639084,   -0.0952327772974968,   -0.02638794481754303,   -0.27581438422203064, 
  -0.0484042763710022,   -0.08987849950790405,   -0.004480231087654829,   0.035655681043863297,   0.02906772680580616,   0.0066133360378444195,   -0.12148797512054443,   -0.13687708973884583, 
  -0.2795730233192444,   0.20225007832050323,   -0.17760860919952393,   0.05238005518913269,   0.02037891559302807,   0.32058995962142944,   0.315188467502594,   0.12685589492321014, 
  0.15403200685977936,   -0.1804356575012207,   -0.18147391080856323,   -0.10936512053012848,   -0.04961466044187546,   -0.11927905678749084,   -0.04438551142811775,   0.10177228599786758, 
  -0.00011441764945629984,   0.00941349659115076,   -0.1810271143913269,   -0.06107562780380249,   -0.16623267531394958,   0.14025992155075073,   0.012416555546224117,   -0.07263152301311493, 
  -0.087409608066082,   0.12457489222288132,   -0.04609588161110878,   0.263235867023468,   -0.05898420512676239,   0.4067777991294861,   -0.20531179010868073,   -0.0474359504878521, 
  -0.2514192461967468,   0.10203661024570465,   0.2852848470211029,   0.4633525013923645,   0.1070430725812912,   -0.2938934564590454,   -0.004303697030991316,   0.0020685610361397266, 
  -0.14240732789039612,   -0.303602933883667,   -0.18800367414951324,   0.07931748032569885,   0.16062124073505402,   -0.201690673828125,   0.013958662748336792,   -0.0928596705198288, 
  -0.08562996983528137,   -0.2100621461868286,   -0.022295374423265457,   0.27298250794410706,   0.14726625382900238,   0.06402987986803055,   -0.01764346845448017,   0.03439891338348389, 
  -0.17080485820770264,   0.013502397574484348,   -0.14567983150482178,   0.326646625995636,   0.013682091608643532,   0.1545242965221405,   0.06152293086051941,   0.06290622055530548, 
  -0.27341607213020325,   0.0455157607793808,   0.13283134996891022,   -0.15597893297672272,   0.1751328408718109,   -0.01598346419632435,   0.3016028106212616,   0.09241317957639694, 
  -0.45649194717407227,   -0.12739787995815277,   -0.13501502573490143,   0.1977037638425827,   -0.4267612397670746,   0.3475964665412903,   0.2685459852218628,   0.3356883227825165, 
  0.41981711983680725,   -0.1238277480006218,   -0.15958161652088165,   -0.012762472964823246,   0.05194273963570595,   -0.2543041706085205,   0.0030443693976849318,   -0.02698121964931488, 
  0.1573488861322403,   0.1488206833600998,   -0.04740751534700394,   0.18075445294380188,   0.058567192405462265,   -0.1939067393541336,   -0.04245288670063019,   -0.386906236410141, 
  -0.3936496376991272,   -0.12664562463760376,   -0.40819498896598816,   -0.05192609503865242,   0.38797497749328613,   0.04268293082714081,   -0.12801271677017212,   -0.11453025788068771, 
  -0.6386891007423401,   -0.2230687439441681,   -0.17714187502861023,   -0.17502400279045105,   -0.10349641740322113,   -0.16232946515083313,   -0.24992293119430542,   -0.15269115567207336, 
  0.002720585558563471,   -0.1170249879360199,   0.17608392238616943,   -0.17069193720817566,   -0.13628651201725006,   0.0005643676267936826,   -0.06468541920185089,   0.016455121338367462, 
  0.12461654096841812,   -0.14084817469120026,   -0.05874273180961609,   0.11958812177181244,   -0.020921846851706505,   0.0629689171910286,   -0.10081033408641815,   -0.18175040185451508, 
  -0.04761854186654091,   0.25343403220176697,   -0.10132932662963867,   0.3078978359699249,   0.13657085597515106,   0.10489003360271454,   0.13952507078647614,   -0.1804451048374176, 
  -0.01690451055765152,   -0.14172881841659546,   0.14549998939037323,   0.11653195321559906,   0.05401388928294182,   0.02749408408999443,   0.050670478492975235,   0.02992466278374195, 
  -0.14331355690956116,   -0.10317961126565933,   -0.27929583191871643,   -0.1725064069032669,   0.18547175824642181,   0.09411606192588806,   -0.1804938018321991,   -0.03970782458782196, 
  -0.08655262738466263,   -0.08775157481431961,   -0.32845979928970337,   -0.20446068048477173,   -0.10788187384605408,   0.22738546133041382,   0.045600876212120056,   0.13980348408222198, 
  -0.042603105306625366,   -0.00022894244466442615,   0.08633743226528168,   0.8996784687042236,   0.5295202732086182,   -0.04585611820220947,   0.4472757577896118,   0.41013696789741516, 
  0.1589258760213852,   0.5454604625701904,   -0.2581789493560791,   -0.2553425133228302,   0.031343892216682434,   -0.08232218027114868,   0.033396780490875244,   0.6509379744529724, 
  -0.03180865943431854,   -0.1857316941022873,   0.6912289261817932,   0.12290642410516739,   -0.440639853477478,   0.28005844354629517,   -0.0032276443671435118,   -0.10098763555288315, 
  -0.1321633905172348,   -0.31828415393829346,   0.029220137745141983,   -0.10291832685470581,   -0.10112475603818893,   -0.0865309089422226,   -0.2577560544013977,   -0.18013979494571686, 
  0.1222347840666771,   0.3736114501953125,   0.07369965314865112,   0.09824685007333755,   0.10966061055660248,   0.0590657964348793,   -0.07972277700901031,   -0.2245311588048935, 
  0.21742966771125793,   0.2929801642894745,   -0.5211912989616394,   -0.408736914396286,   0.20569756627082825,   0.18039675056934357,   -0.09847961366176605,   0.0664057508111, 
  0.02572168968617916,   0.297545850276947,   -0.14410436153411865,   0.0854385569691658,   0.2612282633781433,   -0.31328970193862915,   0.19554348289966583,   0.07250717282295227, 
  -0.49212151765823364,   -0.21866047382354736,   0.025622794404625893,   0.12366693466901779,   0.043444495648145676,   0.2065446823835373,   -0.059834014624357224,   0.09495806694030762, 
  0.20387548208236694,   -0.12064940482378006,   -0.15955764055252075,   0.10633713006973267,   0.16171815991401672,   -0.14671637117862701,   0.15714706480503082,   0.06377698481082916, 
  -0.1320694535970688,   0.1540951281785965,   -0.23510906100273132,   -0.10717935860157013,   -0.41497528553009033,   -0.006561335176229477,   -0.2351582944393158,   -0.677168071269989, 
  -0.1107851192355156,   -0.37948480248451233,   -0.38485389947891235,   0.3093577027320862,   -0.1507919281721115,   -0.33445942401885986,   -0.03653040528297424,   -0.3478007912635803, 
  -0.7127385139465332,   -0.12870673835277557,   -0.5318753123283386,   -0.019834989681839943,   -0.06875136494636536,   -0.053714703768491745,   0.006330016069114208,   0.028734559193253517, 
  -0.009804971516132355,   -0.1400080770254135,   -0.0454784594476223,   0.03714515268802643,   -0.019405264407396317,   0.17489409446716309,   0.07097749412059784,   0.17860834300518036, 
  -0.114740289747715,   0.008936531841754913,   0.0019781633745878935,   -0.2961633801460266,   0.17858634889125824,   0.04957171529531479,   -0.5234808325767517,   0.3630792200565338, 
  0.09081964939832687,   0.03345153480768204,   0.40890368819236755,   0.3307671546936035,   0.06778416037559509,   0.4175606966018677,   0.28378456830978394,   -0.07048065215349197, 

};

#endif // CONV2_WEIGHT_H
