#ifndef CONV2_WEIGHT_H
#define CONV2_WEIGHT_H

#include <ap_fixed.h>
typedef ap_fixed<8, 5> fixed;

fixed conv2_weight[1152] = {
  0.0,   -0.25,   -0.25,   0.25,   0.25,   -0.25,   0.0,   0.25,   0.25,   0.25,   0.0,   -0.25,   0.375,   0.25,   0.375,   -0.125,   0.25,   0.375,   -0.125,   -0.25,   -0.125,   0.125,   -0.125,   -0.25,   0.125,   0.125,   0.25,   -0.125, 
  -0.375,   -0.25,   0.25,   0.0,   -0.25,   0.0,   0.0,   0.0,   0.25,   -0.125,   -0.375,   0.375,   0.375,   0.125,   0.125,   0.25,   0.375,   -0.125,   -0.25,   -0.125,   0.125,   0.0,   -0.25,   0.125,   0.0,   0.125,   -0.25,   -0.25, 
  0.125,   0.125,   -0.5,   -0.25,   0.0,   0.125,   0.0,   0.125,   -0.125,   -0.25,   0.0,   0.0,   -0.25,   0.0,   0.125,   0.0,   0.125,   0.375,   0.125,   -0.375,   -0.125,   -0.5,   0.0,   0.125,   0.0,   0.25,   0.0,   -0.125, 
  -0.5,   -0.5,   -0.5,   -0.125,   0.0,   0.25,   0.25,   0.25,   0.25,   0.0,   0.0,   -0.375,   -0.25,   -0.125,   0.0,   0.25,   0.25,   0.375,   -0.125,   0.125,   -0.125,   -0.375,   -0.375,   -0.25,   0.125,   0.125,   -0.125,   -0.375, 
  -0.25,   -0.25,   -0.25,   -0.125,   0.125,   0.125,   0.25,   0.125,   -0.25,   0.0,   -0.375,   0.0,   0.0,   0.125,   0.25,   0.25,   0.375,   0.25,   0.25,   0.125,   -0.25,   -0.375,   -0.75,   0.0,   0.125,   0.25,   -0.25,   -0.125, 
  -0.125,   0.0,   0.125,   0.0,   -0.125,   -0.125,   -0.125,   0.0,   -0.125,   0.0,   -0.125,   0.0,   0.0,   0.0,   -0.125,   -0.125,   0.0,   -0.125,   0.0,   0.0,   0.0,   -0.125,   -0.125,   -0.125,   -0.125,   -0.125,   -0.125,   0.0, 
  0.0,   0.0,   0.0,   0.0,   0.0,   0.0,   0.0,   -0.125,   -0.125,   0.0,   0.0,   0.0,   0.0,   -0.125,   -0.125,   -0.125,   0.0,   0.125,   0.125,   -0.125,   0.0,   -0.25,   -0.125,   0.0,   0.0,   -0.125,   -0.125,   -0.125, 
  0.0,   0.125,   -0.125,   -0.125,   -0.125,   -0.125,   -0.125,   -0.125,   -0.125,   0.0,   0.0,   0.0,   -0.125,   -0.125,   0.0,   0.0,   -0.125,   -0.125,   -0.125,   0.0,   0.0,   0.25,   -0.125,   -0.125,   0.125,   0.0,   -0.125,   0.125, 
  0.0,   0.0,   0.375,   0.125,   -0.25,   0.25,   0.25,   -0.375,   -0.125,   0.125,   0.25,   0.0,   -0.375,   0.0,   0.125,   -0.125,   -0.125,   0.0,   -0.125,   -0.125,   0.0,   0.0,   -0.25,   0.0,   -0.125,   0.0,   0.125,   0.0, 
  0.0,   0.25,   0.0,   0.0,   0.375,   0.25,   -0.25,   0.125,   0.125,   0.125,   0.125,   0.0,   -0.125,   0.125,   -0.125,   0.0,   0.0,   0.125,   0.0,   -0.625,   -0.375,   0.0,   -0.25,   -0.625,   0.125,   -0.125,   -0.25,   0.0, 
  0.125,   -0.125,   0.0,   0.125,   0.0,   -0.125,   0.125,   0.125,   -0.125,   0.0,   0.125,   0.125,   0.25,   0.0,   0.0,   -0.25,   -0.125,   -0.375,   -0.125,   -0.125,   0.0,   0.125,   0.0,   0.0,   -0.375,   0.0,   -0.125,   0.0, 
  0.0,   0.125,   0.125,   0.0,   0.125,   -0.125,   -0.125,   -0.25,   -0.125,   0.0,   0.25,   0.125,   0.25,   0.25,   0.0,   -0.25,   -0.25,   0.0,   0.0,   0.0,   0.125,   0.0,   -0.25,   -0.125,   0.125,   -0.125,   0.125,   0.0, 
  0.25,   0.25,   0.0,   -0.25,   -0.375,   0.0,   -0.125,   -0.375,   0.0,   -0.125,   0.25,   0.25,   0.625,   0.375,   -0.125,   -0.125,   0.0,   0.0,   0.25,   0.125,   0.125,   0.125,   -0.25,   -0.25,   0.0,   0.25,   0.0,   -0.375, 
  0.125,   0.125,   -0.125,   0.0,   0.0,   -0.25,   0.5,   0.5,   -0.375,   0.0,   0.625,   -0.125,   -0.125,   0.125,   0.25,   0.125,   -0.375,   -0.25,   0.125,   0.125,   -0.375,   -0.125,   0.125,   0.0,   0.125,   0.0,   -0.5,   0.0, 
  -0.125,   -0.375,   0.0,   0.0,   -0.125,   0.625,   0.25,   -0.25,   0.25,   0.375,   -0.125,   -0.125,   0.125,   0.125,   0.125,   0.0,   -0.375,   0.125,   0.0,   -0.125,   -0.125,   0.125,   0.25,   0.0,   -0.25,   -0.125,   0.125,   -0.125, 
  -0.25,   0.0,   -0.125,   0.0,   0.125,   -0.125,   -0.25,   0.0,   -0.125,   -0.25,   0.0,   0.0,   0.125,   -0.125,   -0.125,   0.125,   0.375,   0.375,   -0.5,   -0.25,   0.0,   0.125,   0.0,   -0.125,   0.0,   0.5,   0.25,   -0.625, 
  -0.375,   -0.125,   -0.125,   -0.375,   -0.375,   0.375,   0.25,   0.0,   -0.25,   0.25,   0.125,   -0.125,   0.0,   -0.25,   0.125,   0.125,   0.125,   -0.25,   0.0,   0.0,   0.25,   0.0,   -0.125,   0.125,   0.25,   0.375,   -0.5,   -0.375, 
  0.0,   0.0,   0.0,   -0.25,   0.125,   0.0,   0.125,   -0.25,   -0.125,   0.0,   -0.125,   -0.5,   -0.125,   0.5,   0.0,   -0.125,   0.0,   0.625,   0.375,   -0.125,   0.0,   -0.125,   -0.125,   0.125,   0.0,   -0.375,   -0.125,   -0.125, 
  -0.25,   0.125,   0.0,   0.0,   0.0,   0.125,   0.125,   0.125,   -0.125,   -0.25,   -0.375,   -0.125,   -0.125,   -0.125,   0.0,   0.0,   0.125,   0.125,   -0.125,   0.0,   0.125,   0.0,   -0.125,   0.125,   0.0,   0.0,   0.0,   0.0, 
  -0.125,   0.25,   -0.25,   0.125,   0.125,   0.125,   0.125,   0.125,   -0.125,   -0.25,   0.125,   -0.375,   0.0,   0.25,   0.0,   0.25,   0.125,   -0.25,   0.125,   0.375,   -0.125,   0.0,   0.25,   0.125,   0.125,   -0.125,   0.0,   -0.375, 
  -0.5,   -0.375,   -0.75,   -0.5,   -0.625,   -0.625,   -0.25,   -0.125,   0.0,   0.375,   0.0,   0.25,   0.125,   0.125,   0.0,   0.0,   0.25,   0.0,   -0.375,   0.25,   -0.25,   0.0,   0.0,   -0.25,   0.375,   0.375,   0.25,   -0.25, 
  0.375,   0.0,   -0.625,   0.0,   -0.125,   0.125,   0.25,   0.0,   -0.125,   0.25,   -0.25,   0.0,   0.0,   -0.25,   0.375,   0.375,   0.125,   -0.25,   0.25,   -0.25,   -0.25,   0.0,   -0.625,   0.125,   0.25,   0.125,   -0.25,   0.125, 
  -0.125,   -0.375,   -0.125,   -0.25,   0.125,   0.25,   -0.125,   -0.375,   0.125,   -0.25,   -0.125,   -0.125,   -0.375,   0.25,   -0.25,   -0.125,   -0.25,   0.0,   -0.125,   -0.125,   0.125,   -0.125,   -0.375,   0.375,   0.0,   -0.125,   0.5,   -0.125, 
  -0.125,   0.0,   -0.5,   0.25,   0.0,   -0.125,   -0.25,   0.0,   0.125,   0.25,   -0.125,   0.0,   0.0,   0.125,   0.0,   0.125,   -0.125,   0.25,   0.25,   -0.125,   -0.25,   -0.375,   0.125,   0.0,   -0.125,   0.0,   -0.125,   -0.125, 
  -0.125,   0.125,   0.125,   -0.125,   0.125,   0.125,   -0.125,   0.0,   -0.125,   0.0,   0.125,   0.125,   0.25,   0.125,   0.125,   0.125,   0.5,   0.125,   -0.25,   -0.375,   0.0,   0.125,   0.125,   -0.25,   0.0,   -0.125,   0.0,   0.125, 
  0.0,   0.0,   -0.25,   -0.375,   0.0,   0.0,   0.25,   -0.25,   -0.125,   0.375,   0.5,   0.0,   0.125,   -0.125,   -0.125,   -0.25,   -0.125,   0.0,   -0.125,   0.125,   -0.25,   0.0,   0.125,   -0.375,   0.0,   0.125,   -0.375,   -0.125, 
  0.0,   -0.375,   -0.25,   0.375,   0.125,   0.125,   0.5,   -0.125,   -0.125,   0.625,   0.0,   0.125,   0.125,   -0.125,   0.125,   0.125,   -0.25,   0.0,   0.0,   0.125,   -0.125,   0.125,   -0.375,   -0.125,   0.125,   -0.5,   0.0,   0.0, 
  -0.25,   0.0,   0.25,   -0.25,   0.0,   0.5,   -0.25,   -0.125,   0.375,   0.0,   0.0,   0.125,   -0.25,   0.125,   0.0,   -0.375,   0.0,   0.125,   0.0,   -0.25,   -0.375,   -0.25,   -0.5,   -0.875,   -0.125,   -0.5,   -0.75,   0.0, 
  0.0,   0.25,   -0.375,   0.125,   0.25,   -0.375,   0.0,   0.125,   0.125,   0.125,   -0.125,   -0.125,   0.125,   -0.25,   0.125,   -0.125,   -0.125,   -0.25,   0.25,   0.125,   0.0,   0.25,   0.0,   0.125,   0.125,   0.125,   0.125,   0.125, 
  -0.25,   0.125,   0.0,   -0.375,   0.0,   -0.125,   -0.25,   0.0,   0.25,   0.0,   0.25,   0.125,   -0.25,   0.25,   -0.25,   0.0,   -0.125,   0.125,   -0.125,   -0.25,   0.125,   -0.125,   0.0,   -0.125,   0.0,   0.125,   0.25,   -0.125, 
  0.25,   0.0,   -0.25,   0.25,   -0.25,   0.0,   -0.5,   -0.375,   0.0,   -0.625,   -0.375,   -0.125,   -0.375,   -0.125,   0.0,   0.0,   0.375,   -0.125,   0.125,   0.25,   -0.375,   0.25,   -0.125,   -0.125,   0.25,   0.25,   0.25,   -0.125, 
  0.0,   0.25,   -0.125,   -0.125,   -0.25,   0.25,   0.125,   0.0,   -0.125,   -0.25,   -0.375,   -0.125,   -0.125,   -0.375,   0.0,   0.0,   -0.125,   0.0,   0.125,   0.25,   -0.125,   -0.125,   0.0,   0.125,   0.0,   -0.125,   0.0,   0.125, 
  0.25,   -0.25,   -0.125,   -0.125,   0.25,   0.125,   0.125,   0.25,   0.125,   0.125,   -0.125,   -0.125,   -0.5,   0.125,   0.125,   0.125,   -0.125,   0.125,   0.25,   -0.25,   -0.125,   -0.25,   -0.125,   -0.25,   -0.25,   0.0,   0.25,   0.25, 
  0.0,   0.25,   0.125,   0.125,   0.125,   0.125,   -0.125,   0.125,   0.125,   -0.25,   0.0,   -0.25,   0.125,   0.0,   -0.125,   0.0,   -0.125,   0.0,   0.125,   0.0,   -0.25,   -0.5,   -0.25,   0.125,   -0.125,   0.125,   0.125,   0.25, 
  0.125,   0.25,   0.0,   0.125,   0.125,   0.0,   0.0,   0.0,   0.0,   0.0,   0.0,   0.0,   0.125,   0.25,   0.25,   0.125,   -0.125,   0.0,   -0.125,   0.0,   -0.25,   -0.375,   0.0,   -0.125,   0.25,   0.0,   0.125,   0.125, 
  -0.125,   0.125,   0.25,   0.0,   0.25,   0.0,   0.0,   -0.125,   -0.125,   -0.125,   -0.5,   0.0,   0.125,   -0.5,   -0.125,   0.25,   -0.125,   0.125,   0.375,   0.0,   0.25,   0.0,   0.25,   0.125,   -0.125,   -0.125,   -0.25,   -0.125, 
  -0.125,   -0.25,   0.25,   -0.125,   0.25,   0.25,   -0.125,   0.25,   0.0,   -0.25,   -0.375,   -0.375,   -0.5,   -0.25,   -0.375,   -0.25,   0.125,   0.0,   -0.25,   -0.25,   -0.375,   0.0,   0.125,   0.375,   0.125,   0.125,   0.125,   -0.25, 
  -0.25,   -0.625,   0.0,   -0.125,   0.375,   -0.125,   0.125,   0.25,   -0.375,   -0.125,   -0.125,   -0.25,   0.0,   -0.125,   -0.125,   0.125,   0.0,   -0.125,   -0.25,   -0.25,   -0.125,   0.0,   0.5,   -0.125,   0.25,   0.125,   0.125,   0.0, 
  -0.375,   0.0,   -0.125,   0.25,   -0.25,   -0.125,   0.125,   -0.125,   -0.125,   -0.25,   -0.25,   0.0,   0.125,   0.0,   0.375,   0.25,   0.0,   0.0,   0.0,   0.0,   -0.125,   -0.125,   0.0,   0.125,   0.0,   -0.25,   -0.25,   -0.25, 
  -0.125,   -0.125,   0.25,   -0.125,   -0.125,   0.125,   -0.125,   0.125,   0.125,   0.0,   0.0,   -0.125,   0.125,   -0.125,   -0.25,   -0.25,   0.125,   0.125,   0.125,   0.125,   0.125,   0.0,   -0.125,   0.125,   -0.125,   -0.125,   -0.125,   0.0, 
  0.0,   0.25,   0.25,   0.125,   0.125,   0.125,   0.125,   0.25,   0.125,   0.125,   -0.125,   0.125,   0.0,   -0.125,   -0.5,   -0.625,   0.0,   -0.25,   -0.375,   -0.125,   -0.125,   -0.125,   0.125,   0.0,   0.125,   0.125,   0.0,   0.0, 
  0.0,   0.125,   0.0,   0.0, 
};

#endif // CONV2_WEIGHT_H
