#ifndef CONV1_WEIGHT_H
#define CONV1_WEIGHT_H

float conv1_weight[72] = {
  -0.2221899777650833,   0.43712830543518066,   0.2268851101398468,   0.16805414855480194,   0.20922744274139404,   0.501449704170227,   -0.11428356170654297,   0.6756993532180786, 
  0.22638843953609467,   -0.5565860271453857,   0.2402111440896988,   0.23918141424655914,   0.37940704822540283,   0.8333459496498108,   0.43431875109672546,   0.5593357086181641, 
  -0.060837265104055405,   -0.6306807994842529,   0.7370505332946777,   0.6047648787498474,   0.42842260003089905,   0.5801656246185303,   0.16638897359371185,   0.2731488049030304, 
  0.4826829433441162,   0.05158108472824097,   0.2722160220146179,   -0.06482049077749252,   0.0785800963640213,   0.5333960652351379,   -0.31981945037841797,   -0.8574461340904236, 
  -0.4241946339607239,   0.49608314037323,   0.3238218426704407,   -0.06630736589431763,   0.5758459568023682,   0.7207040786743164,   0.46585753560066223,   -0.2830694317817688, 
  0.2889605760574341,   0.0888204574584961,   -0.9349080324172974,   -0.9202581644058228,   -0.1646038293838501,   0.34186404943466187,   0.17414434254169464,   -0.3993537425994873, 
  0.20439274609088898,   -0.3649226427078247,   -0.5416368842124939,   -0.9133750796318054,   -0.5142791271209717,   -0.04680882394313812,   -0.05279114469885826,   0.4884543716907501, 
  0.6420592665672302,   0.3870560824871063,   0.11668480932712555,   0.453556627035141,   -0.4516260325908661,   -0.44025877118110657,   0.028556877747178078,   -0.837489664554596, 
  -0.18215814232826233,   0.7364296913146973,   -0.6920063495635986,   0.13429342210292816,   0.5452494621276855,   -0.4406560957431793,   0.29597756266593933,   0.17121602594852448, 

};

#endif // CONV1_WEIGHT_H
