#ifndef FC1_WEIGHT_H
#define FC1_WEIGHT_H

float fc1_weight[7840] = {
  0.132661372423172,   0.1029626801609993,   0.21958133578300476,   0.26151904463768005,   0.09414894133806229,   0.023547373712062836,   0.07494787126779556,   -0.07502887398004532, 
  -0.26162928342819214,   -0.4489953815937042,   -0.10271289199590683,   -0.11948885768651962,   -0.2237236499786377,   -0.017103690654039383,   0.08408462256193161,   -0.2302103489637375, 
  -0.08559675514698029,   -0.03784004971385002,   -0.22379428148269653,   -0.33661195635795593,   0.09956865757703781,   -0.19587749242782593,   -0.29442518949508667,   -0.18335607647895813, 
  -0.1719154715538025,   -0.2102775275707245,   -0.1572481095790863,   -0.0718889981508255,   0.07643838226795197,   -0.10009509325027466,   -0.19209027290344238,   -0.259673535823822, 
  0.043210141360759735,   0.1375623643398285,   0.12440427392721176,   -0.019078673794865608,   -0.08858861774206161,   0.034050486981868744,   0.09299245476722717,   0.061590295284986496, 
  0.00033549757790751755,   -0.10726962238550186,   0.029649872332811356,   -0.07382653653621674,   0.050613243132829666,   0.05728360265493393,   0.049757733941078186,   0.004366650246083736, 
  -0.1484377533197403,   0.025013981387019157,   -0.029940927401185036,   -0.060226086527109146,   -0.030965710058808327,   -0.08396948128938675,   -0.2434026598930359,   0.050849247723817825, 
  -0.017597263678908348,   -0.0598047636449337,   -0.04259449988603592,   -0.004601906519383192,   0.04466398432850838,   -0.07982352375984192,   0.015450645238161087,   -0.06103499233722687, 
  -0.032688673585653305,   0.0005239898455329239,   0.05372779071331024,   -0.06390412151813507,   -0.035036273300647736,   -0.09048144519329071,   -0.11921348422765732,   0.0693240538239479, 
  -0.017537973821163177,   0.004307188093662262,   -0.05739525333046913,   0.03931691497564316,   0.009807842783629894,   0.05584316700696945,   0.10323798656463623,   -0.020832013338804245, 
  0.13116773962974548,   0.07389174401760101,   0.060044340789318085,   0.007872669026255608,   0.10488147288560867,   -0.03101673536002636,   -0.042200274765491486,   0.07050656527280807, 
  0.04354655370116234,   -0.14211638271808624,   0.021506566554307938,   -0.014588539488613605,   -0.0509779267013073,   -0.1626388430595398,   -0.11110854148864746,   -0.02021886594593525, 
  -0.1838253289461136,   -0.021602623164653778,   -0.014508902095258236,   0.11537136882543564,   -0.06384675949811935,   -0.0372762531042099,   -0.08452881127595901,   -0.06924699991941452, 
  0.018943196162581444,   -0.033060647547245026,   -0.039404574781656265,   -0.0763992965221405,   0.03527243435382843,   0.004842568654567003,   0.07478547841310501,   0.10896168649196625, 
  -0.03456728160381317,   -0.18652230501174927,   0.07760577648878098,   0.007602743338793516,   0.11765698343515396,   0.13823841512203217,   0.14111293852329254,   -0.05753273144364357, 
  -0.04384227842092514,   0.07731007039546967,   0.044346511363983154,   0.08441544324159622,   0.08681976795196533,   0.12981030344963074,   -0.03225978836417198,   -0.07154030352830887, 
  0.09216545522212982,   0.21586348116397858,   0.0014099584659561515,   -0.08118787407875061,   0.06659671664237976,   -0.0768234133720398,   0.04095357656478882,   0.2266623079776764, 
  0.04117171838879585,   -0.27408069372177124,   -0.25289681553840637,   -0.2161703109741211,   -0.04380215331912041,   0.06404085457324982,   -0.24180182814598083,   -0.5935062170028687, 
  -0.31500253081321716,   -0.34455496072769165,   -0.2518371641635895,   0.028260698541998863,   -0.0008853906183503568,   0.04806628078222275,   -0.07703542709350586,   -0.049358297139406204, 
  -0.013050499372184277,   0.02250896953046322,   0.03903555870056152,   0.01571265421807766,   -0.044035933911800385,   0.02706374041736126,   -0.05620592460036278,   0.029982322826981544, 
  -0.08344680070877075,   0.0876687616109848,   0.07658866047859192,   -0.011000409722328186,   0.19994720816612244,   -0.20441755652427673,   0.0168023519217968,   -0.0708875060081482, 
  0.09134920686483383,   0.06786440312862396,   0.1557001918554306,   -0.10235899686813354,   0.1101241409778595,   0.09923497587442398,   0.04682381451129913,   0.061994124203920364, 
  -0.05000180006027222,   0.1476123183965683,   0.12522141635417938,   -0.001495464239269495,   0.2701001465320587,   0.05694671720266342,   -0.06571124494075775,   -0.1218508929014206, 
  -0.06750772148370743,   -0.3398415446281433,   0.00820296723395586,   0.01363255362957716,   0.14346487820148468,   0.12185310572385788,   -0.23601756989955902,   -0.31187906861305237, 
  -0.4007306396961212,   -0.09221597760915756,   -0.06018346920609474,   0.0009068417130038142,   0.11594617366790771,   0.09602109342813492,   0.050926573574543,   0.16613106429576874, 
  -0.016458990052342415,   0.1300644427537918,   0.08110909909009933,   0.05944933742284775,   0.051733847707509995,   -0.025927288457751274,   0.014076330699026585,   -0.14495813846588135, 
  -0.22866734862327576,   -0.05128009617328644,   0.07719718664884567,   -0.16435126960277557,   -0.07819607108831406,   -0.1781538873910904,   -0.4116527736186981,   -0.3671409785747528, 
  0.025496097281575203,   -0.0007097024354152381,   -0.2586480677127838,   -0.09868240356445312,   -0.21109755337238312,   -0.13686956465244293,   -0.022692671045660973,   -0.032088302075862885, 
  0.11359727382659912,   -0.18583568930625916,   -0.4324434697628021,   -0.19908715784549713,   0.12581408023834229,   0.19402074813842773,   0.08391537517309189,   0.10382439941167831, 
  -0.06725399941205978,   0.017277780920267105,   0.12054218351840973,   0.027849828824400902,   0.03133659437298775,   -0.0004189940227661282,   0.05859433859586716,   -0.07551397383213043, 
  -0.06279680132865906,   0.07410846650600433,   -0.02418511174619198,   -0.01078360341489315,   -0.0028000406455248594,   -0.02457592822611332,   0.009237531572580338,   0.07041352987289429, 
  -0.115542471408844,   -0.149836003780365,   0.062375180423259735,   -0.044601619243621826,   -0.010905762203037739,   -0.07577938586473465,   -0.11828532814979553,   -0.041965171694755554, 
  0.1033044084906578,   0.18463902175426483,   -0.0880393460392952,   -0.013846262358129025,   0.035158947110176086,   -0.08066404610872269,   0.04160400852560997,   0.10781769454479218, 
  0.15909816324710846,   -0.05061286315321922,   -0.08572966605424881,   0.079470194876194,   -0.010429003275930882,   -0.10283666104078293,   0.20214740931987762,   0.2608342468738556, 
  -0.18680119514465332,   -0.10952364653348923,   0.042609576135873795,   0.023402594029903412,   -0.19018380343914032,   -0.06776920706033707,   0.1452540010213852,   -0.09974922984838486, 
  -0.062265168875455856,   -0.015968484804034233,   0.11831264942884445,   -0.13188119232654572,   -0.39989984035491943,   -0.3219555914402008,   -0.10137832164764404,   -0.09557543694972992, 
  0.05965334549546242,   -0.006860639899969101,   -0.0789249986410141,   -0.10391557961702347,   -0.1700541377067566,   -0.2523227035999298,   -0.015381842851638794,   -0.06175665929913521, 
  -0.08048193901777267,   -0.0076085603795945644,   0.04445437341928482,   0.0035118216183036566,   -0.035455964505672455,   -0.027169903740286827,   -0.04852403327822685,   0.0223446786403656, 
  0.05602724105119705,   0.012393736280500889,   0.13733574748039246,   -0.02333061397075653,   0.04595058038830757,   -0.17537011206150055,   0.08779194951057434,   0.06332467496395111, 
  0.08135765045881271,   0.11808973550796509,   -0.014804178848862648,   0.1108434721827507,   0.14324575662612915,   -0.0010968338465318084,   -0.1898861974477768,   -0.08704663813114166, 
  0.12467525154352188,   0.0157170407474041,   -0.08231528103351593,   0.07010296732187271,   0.004641352687031031,   -0.1890140026807785,   -0.3630322217941284,   -0.09569022059440613, 
  0.1561942994594574,   -0.01905442401766777,   -0.010641041211783886,   -0.03566456213593483,   0.004618423990905285,   0.058720242232084274,   0.017223868519067764,   0.14467434585094452, 
  -0.07866629958152771,   -0.08310680836439133,   -0.03372981771826744,   -0.12765125930309296,   0.098666712641716,   -0.15139618515968323,   -0.050142839550971985,   0.02568189799785614, 
  0.012734313495457172,   -0.031218096613883972,   -0.020312083885073662,   -0.012764391489326954,   -0.22753432393074036,   0.025364860892295837,   -0.03799913078546524,   -0.12491336464881897, 
  -0.08768235892057419,   -0.07971726357936859,   -0.13610517978668213,   -0.06916804611682892,   0.10885561257600784,   0.09873517602682114,   -0.03867652639746666,   0.006833091378211975, 
  -0.02491879276931286,   -0.19296464323997498,   -0.3335837125778198,   -0.05572454631328583,   -0.18816417455673218,   -0.010001623071730137,   -0.04977111145853996,   -0.04267992824316025, 
  -0.17902639508247375,   0.02388876862823963,   -0.031058356165885925,   0.048524294048547745,   -0.009494349360466003,   -0.025982799008488655,   0.08522312343120575,   0.1025901660323143, 
  0.0366169773042202,   -0.10859186202287674,   0.03524523600935936,   -0.049979936331510544,   -0.029862266033887863,   -0.004541486501693726,   0.0846385806798935,   -0.029100138694047928, 
  0.06174580007791519,   0.0058615379966795444,   0.013704082928597927,   -0.11022396385669708,   -0.1248764619231224,   -0.07370824366807938,   -0.1581011265516281,   7.896495662862435e-05, 
  -0.01433445606380701,   0.006727892439812422,   0.023868268355727196,   -0.07097577303647995,   0.02589007280766964,   0.03983344882726669,   -0.04304148629307747,   0.02007932960987091, 
  0.07564248144626617,   -0.04128814861178398,   0.038764964789152145,   -0.08045962452888489,   -0.08720768243074417,   -0.04886268824338913,   0.03242887929081917,   0.037871599197387695, 
  0.047468360513448715,   0.06522726267576218,   -0.1702452003955841,   -0.011104186065495014,   -0.1966850310564041,   0.03368315100669861,   0.08239011466503143,   0.07062987238168716, 
  -0.33114367723464966,   0.07919283211231232,   0.0889223963022232,   -0.20098824799060822,   0.045364368706941605,   0.024824798107147217,   0.057945284992456436,   -0.1697833240032196, 
  0.060949914157390594,   0.021878914907574654,   -0.11521519720554352,   0.04835521802306175,   -0.02141455188393593,   0.060810767114162445,   -0.05537749081850052,   0.140528604388237, 
  0.052893754094839096,   -0.020328568294644356,   0.030556416139006615,   -0.11695697903633118,   -0.1287999451160431,   -0.9058758616447449,   -0.4354194104671478,   -0.19161194562911987, 
  0.051851361989974976,   0.05022400617599487,   -0.003703366033732891,   -0.41090071201324463,   -0.12728019058704376,   -0.2605626583099365,   -0.15111489593982697,   0.18402959406375885, 
  0.0067482213489711285,   -0.08324102312326431,   -0.15846660733222961,   -0.032617975026369095,   -0.2258652299642563,   -0.12994888424873352,   0.04004361853003502,   0.0016200108220800757, 
  -0.06323878467082977,   0.07609570771455765,   0.024622086435556412,   -0.05302581936120987,   0.052837878465652466,   0.08913219720125198,   -0.05082601681351662,   -0.009152420796453953, 
  0.11924666911363602,   0.10494167357683182,   0.05441378802061081,   0.0656074658036232,   0.1070655807852745,   -0.12484744936227798,   -0.0017988602630794048,   0.08253113180398941, 
  -0.08233413100242615,   -0.0027919718995690346,   0.021604320034384727,   0.12078030407428741,   -0.03528039529919624,   -0.17995041608810425,   0.013988092541694641,   -0.01868877373635769, 
  0.010458646342158318,   -0.0019366892520338297,   -0.08456645905971527,   -0.014381742104887962,   -0.15126660466194153,   -0.0466233491897583,   -0.1889989972114563,   -0.07132155448198318, 
  0.05596471205353737,   -0.15582314133644104,   0.05044083297252655,   0.012361723929643631,   0.19526290893554688,   0.20674018561840057,   0.13763365149497986,   0.005570780951529741, 
  0.02542024292051792,   0.13956360518932343,   -0.12490937113761902,   -0.3493427336215973,   -0.03422496095299721,   0.003909016959369183,   -0.004990153945982456,   0.00628148578107357, 
  0.0892898291349411,   -0.028363829478621483,   0.10002007335424423,   0.13792401552200317,   0.07741820812225342,   -0.04879914969205856,   0.09297728538513184,   0.14006292819976807, 
  -0.15695875883102417,   -0.09256736189126968,   -0.08976683020591736,   -0.0844298005104065,   0.07065356522798538,   -0.07630603015422821,   0.08331109583377838,   0.054230984300374985, 
  -0.04610689729452133,   -0.2412841022014618,   -0.1771630048751831,   -0.0055149756371974945,   0.1309857964515686,   -0.026144564151763916,   -0.024612657725811005,   0.08178873360157013, 
  0.06086051091551781,   0.04729120060801506,   -0.006602962501347065,   -0.12428044527769089,   0.010548869147896767,   0.05946575105190277,   0.03625023737549782,   0.05599074438214302, 
  0.043414581567049026,   -0.017797745764255524,   -0.13337598741054535,   0.03382581099867821,   0.0650860145688057,   0.06216798722743988,   0.01995641365647316,   0.0545317716896534, 
  0.0993979349732399,   0.1401412934064865,   -0.09579603374004364,   0.08348946273326874,   0.00309174251742661,   0.05790066719055176,   0.03938926011323929,   -0.06521282345056534, 
  0.0005914017092436552,   0.0807032436132431,   -0.1368693858385086,   0.01020064763724804,   -0.0362388975918293,   -0.017711684107780457,   -0.008035234175622463,   -0.049791768193244934, 
  -0.16592569649219513,   -0.4328726828098297,   -0.36484819650650024,   0.028541386127471924,   -0.05567317456007004,   -0.20136994123458862,   -0.1717318445444107,   -0.020351499319076538, 
  -0.578626811504364,   -0.41254231333732605,   0.0025904725771397352,   0.24683740735054016,   0.0934077650308609,   -0.2261972576379776,   -0.05319385975599289,   -0.09068771451711655, 
  0.025546321645379066,   0.17049553990364075,   0.3304503262042999,   0.0472673699259758,   0.06124163791537285,   0.07846854627132416,   -0.11598467081785202,   0.04233117029070854, 
  0.13467970490455627,   -0.1447703242301941,   0.015810612589120865,   0.07904069870710373,   -0.026098156347870827,   -0.0006196298054419458,   -0.09108509123325348,   0.09155021607875824, 
  -0.11261788010597229,   -0.05805635824799538,   -0.022538762539625168,   0.10115493834018707,   -0.09769793599843979,   0.009136060252785683,   -0.08185718953609467,   -0.08256766945123672, 
  -0.03128562122583389,   0.15850278735160828,   -0.15743446350097656,   0.18662795424461365,   0.04687770828604698,   0.004053143784403801,   -0.1987757533788681,   -0.12570880353450775, 
  0.012312808074057102,   -0.029106630012392998,   0.08135447651147842,   0.14876069128513336,   -0.3589136600494385,   -0.1120481789112091,   0.1570315808057785,   -0.025441650301218033, 
  0.0755784660577774,   0.08443976193666458,   -0.015874655917286873,   0.036467812955379486,   -0.022442666813731194,   0.08507765829563141,   -0.14902840554714203,   -0.11895518749952316, 
  -0.1142151951789856,   0.01687689684331417,   0.005668103229254484,   0.0031582280062139034,   0.1148819625377655,   -0.09105565398931503,   0.07142524421215057,   -0.212864950299263, 
  -0.20178066194057465,   -0.05607955530285835,   -0.14745496213436127,   -0.047217849642038345,   -0.0037518173921853304,   -0.03232120722532272,   0.07006265968084335,   -0.030175048857927322, 
  0.02627551183104515,   -0.05972859635949135,   0.0002805400872603059,   -0.003675461281090975,   -0.045495204627513885,   -0.05384749174118042,   0.008522114716470242,   0.02722473256289959, 
  0.04336509853601456,   -0.19978253543376923,   -0.1922849714756012,   -0.03329506143927574,   0.012723958119750023,   0.07288486510515213,   0.04849559813737869,   -0.24177366495132446, 
  -0.06002230569720268,   -0.14591018855571747,   -0.0952792689204216,   0.10129343718290329,   0.0906309261918068,   -0.1927196979522705,   -0.04299232363700867,   0.03430897742509842, 
  -0.519246518611908,   0.08965110778808594,   0.09909778088331223,   -0.12790584564208984,   0.036084335297346115,   0.0512763112783432,   0.10779350250959396,   -0.26051151752471924, 
  0.01804518699645996,   0.02138063684105873,   -0.24998173117637634,   0.12362857162952423,   0.08223273605108261,   0.1920524686574936,   0.1115739569067955,   0.10922843962907791, 
  -0.05630510672926903,   -0.05712734907865524,   -0.3846791386604309,   -0.31266340613365173,   -0.1737893521785736,   -0.02759537100791931,   0.14763683080673218,   0.016244545578956604, 
  -0.047131266444921494,   0.06913866847753525,   0.07794450223445892,   -0.03795686364173889,   0.08498415350914001,   0.26417630910873413,   -0.026026569306850433,   -0.07818565517663956, 
  -0.1407945454120636,   -0.032883018255233765,   -0.040189262479543686,   0.2172127515077591,   0.16556590795516968,   -0.03857913985848427,   0.2414616048336029,   -0.11101444065570831, 
  0.08878803253173828,   -0.01985168643295765,   0.076657734811306,   0.03827546536922455,   0.10537121444940567,   -0.0514918714761734,   -0.10041042417287827,   -0.19799834489822388, 
  -0.07072234898805618,   -0.26697373390197754,   -0.10229123383760452,   0.120995432138443,   0.02407289855182171,   -0.009940668940544128,   0.09904756397008896,   -0.08791095018386841, 
  -0.25234687328338623,   0.013404282741248608,   0.011258775368332863,   -0.008346869610249996,   0.0011647907085716724,   -0.09064694494009018,   -0.15620194375514984,   -0.2316509485244751, 
  0.12216795980930328,   0.018542340025305748,   0.1450568437576294,   -0.22190585732460022,   -0.15727117657661438,   -0.19324974715709686,   0.1044202670454979,   0.02511528879404068, 
  -0.12703773379325867,   -0.09166668355464935,   0.011740216054022312,   -0.18552051484584808,   -0.15785808861255646,   -0.0769391730427742,   0.07220013439655304,   -0.18685384094715118, 
  0.02509286254644394,   -0.16626718640327454,   -0.11644846946001053,   -0.1614600121974945,   0.00248182425275445,   -0.23327814042568207,   0.05971560254693031,   0.016929155215620995, 
  0.010350590571761131,   0.006908840499818325,   0.03523075953125954,   -0.06198548525571823,   -0.12869973480701447,   0.15387234091758728,   0.18184196949005127,   0.13181479275226593, 
  0.06230809912085533,   -0.013093095272779465,   0.05272270739078522,   0.0682382732629776,   0.035897720605134964,   0.06119180843234062,   -0.0298161618411541,   0.12748101353645325, 
  0.05430600047111511,   0.0755346417427063,   0.03358118608593941,   0.17976544797420502,   -0.001863299636170268,   -0.033106815069913864,   0.031766653060913086,   -0.14942698180675507, 
  -0.24372997879981995,   -0.0036590665113180876,   0.08188179135322571,   -0.283114492893219,   -0.2673409581184387,   -0.48355549573898315,   -0.21108704805374146,   0.021366676315665245, 
  0.054905299097299576,   0.04304906725883484,   0.07378705590963364,   0.14162440598011017,   0.11933137476444244,   0.06471893191337585,   0.09193971753120422,   0.08130164444446564, 
  -0.07566123455762863,   -0.08104927837848663,   0.04071284085512161,   0.16381946206092834,   -0.0572701171040535,   -0.1217140480875969,   -0.002203581389039755,   0.12651018798351288, 
  0.2003401666879654,   0.023224717006087303,   -0.1931493878364563,   -0.009934124536812305,   0.04899794980883598,   -0.06212831288576126,   0.1541222482919693,   0.07829118520021439, 
  -0.3279046416282654,   -0.1286020129919052,   -0.04435637220740318,   0.1004040390253067,   0.16605742275714874,   0.21028302609920502,   0.09343181550502777,   -0.11650128662586212, 
  0.03943272680044174,   -0.03753938525915146,   0.11816316097974777,   0.0649375170469284,   0.14367662370204926,   -0.056783221662044525,   -0.04915184527635574,   -0.011531795375049114, 
  0.0382896289229393,   -0.07548707723617554,   0.05360600724816322,   0.022023603320121765,   -0.05260566994547844,   -0.006026186980307102,   0.05501915141940117,   0.046450622379779816, 
  -0.033619169145822525,   0.02743552066385746,   0.06289795786142349,   0.12680965662002563,   0.08950101584196091,   0.06165803223848343,   0.15347790718078613,   -0.35889509320259094, 
  0.036092884838581085,   -0.050808414816856384,   -0.023646557703614235,   0.06295643746852875,   -0.0620102733373642,   0.0586017370223999,   0.051066577434539795,   -0.28481346368789673, 
  0.07489611953496933,   0.016061881557106972,   -0.1048874631524086,   -0.19085262715816498,   0.04236332327127457,   0.019347313791513443,   -0.06999228894710541,   -0.054112810641527176, 
  -0.01542816311120987,   -0.030358243733644485,   -0.16361390054225922,   0.0213814377784729,   -0.27312684059143066,   -0.010954754427075386,   0.09072355926036835,   0.024847237393260002, 
  -0.20322702825069427,   -0.36059170961380005,   0.00015665819228161126,   0.0737067386507988,   0.11684287339448929,   0.1673704981803894,   -0.0013003653148189187,   -0.27273842692375183, 
  -0.257114976644516,   -0.06917626410722733,   -0.2707575857639313,   0.056506454944610596,   0.04355365410447121,   0.08974548429250717,   -0.005556976422667503,   -9.357932140119374e-05, 
  -0.14115296304225922,   -0.10472306609153748,   0.10282610356807709,   0.25159764289855957,   0.040246665477752686,   0.12067252397537231,   -0.08293965458869934,   0.12954998016357422, 
  -0.2006579339504242,   -0.011987537145614624,   0.22053101658821106,   0.036943256855010986,   0.1760951578617096,   -0.06763246655464172,   -0.0756499394774437,   -0.06062842532992363, 
  -0.1740187406539917,   0.09826220571994781,   -0.2759493291378021,   0.04242045804858208,   -0.037766605615615845,   -0.08399935066699982,   0.012832826934754848,   -0.011812921613454819, 
  0.05535280331969261,   -0.5243160724639893,   0.0017068355809897184,   0.016916902735829353,   -0.08280034363269806,   -0.1880704164505005,   0.007695462554693222,   -0.19856105744838715, 
  0.04634064435958862,   0.035556498914957047,   0.016911044716835022,   0.02161884680390358,   0.034017231315374374,   0.026062162593007088,   -0.1261206716299057,   0.19591088593006134, 
  -0.044084493070840836,   -0.022908521816134453,   0.1265406757593155,   0.024221837520599365,   -0.01858101598918438,   -0.06385211646556854,   0.5418006181716919,   0.0870429128408432, 
  0.11956240236759186,   0.126487597823143,   -0.3025231957435608,   0.0513969361782074,   -0.07519101351499557,   0.09551204741001129,   -0.021774670109152794,   0.05149570479989052, 
  -0.029297590255737305,   -0.03825521096587181,   0.05319523811340332,   -0.03986147791147232,   -0.006880082655698061,   0.13463416695594788,   0.2974952161312103,   0.2283271700143814, 
  -0.07966700941324234,   -0.05982854962348938,   -0.0088033527135849,   -0.11237765103578568,   0.15491068363189697,   0.3709988296031952,   0.08693597465753555,   0.07341703772544861, 
  -0.11901362985372543,   -0.10050533711910248,   -0.0020077426452189684,   0.3065045475959778,   0.2821118235588074,   0.022248202934861183,   -0.01003407035022974,   -0.05787850171327591, 
  -0.019084136933088303,   0.04135291650891304,   0.3677656054496765,   0.15006236732006073,   -0.10727560520172119,   -0.0009194046724587679,   -0.01117571908980608,   0.06400943547487259, 
  0.037111178040504456,   0.21528597176074982,   -0.21760053932666779,   -0.004578685387969017,   -0.1202135905623436,   -0.12937641143798828,   0.1649637222290039,   0.02042064070701599, 
  0.06879482418298721,   -0.01906590908765793,   -0.0984547883272171,   -0.060601457953453064,   0.01108803041279316,   0.001858244533650577,   -0.023866746574640274,   0.04763127490878105, 
  0.1624869704246521,   0.0302884541451931,   0.06858056038618088,   -0.019107632339000702,   -0.05415185168385506,   0.023053782060742378,   0.45745354890823364,   0.1918739229440689, 
  -0.06467674672603607,   -0.08693837374448776,   0.012087996117770672,   -0.03622881695628166,   0.22306574881076813,   0.22667819261550903,   -0.11453089863061905,   0.0051851398311555386, 
  0.02296939492225647,   -0.009370813146233559,   0.11164585500955582,   0.3605860769748688,   0.0512920618057251,   -0.022100551053881645,   -0.006635118741542101,   0.06345949321985245, 
  0.0713653713464737,   0.24670477211475372,   0.2850046157836914,   0.12838852405548096,   0.04660581424832344,   0.00033963017631322145,   0.03383892402052879,   0.10994541645050049, 
  0.12666136026382446,   -0.08440614491701126,   -0.012574638240039349,   0.01858012191951275,   0.061357300728559494,   0.02307490073144436,   -0.011089603416621685,   -0.018660428002476692, 
  -0.09609152376651764,   -0.03319898247718811,   0.06184754893183708,   0.023893389850854874,   -0.09727151691913605,   0.03848441690206528,   -0.11826131492853165,   0.009928813204169273, 
  -0.0800287127494812,   0.012754106894135475,   0.029538270086050034,   0.04702740162611008,   -0.0002047567832050845,   0.01573711447417736,   0.1320285052061081,   0.06081795319914818, 
  0.11328770220279694,   0.1562221646308899,   -0.00665458757430315,   0.04969872906804085,   0.020437177270650864,   0.027654467150568962,   0.05338252708315849,   -0.08404899388551712, 
  -0.4435698390007019,   -0.21146321296691895,   0.08147116750478745,   -0.17834773659706116,   0.05854729190468788,   0.11607883870601654,   0.04324643313884735,   0.019809851422905922, 
  -0.06780215352773666,   -0.1659599244594574,   -0.15270359814167023,   -0.03943224251270294,   0.09006711840629578,   -0.09905002266168594,   -0.17488212883472443,   0.18665574491024017, 
  0.0705534964799881,   -0.09622050076723099,   -0.05097708851099014,   0.08480150997638702,   0.16303353011608124,   0.08823569864034653,   0.25661662220954895,   0.041902393102645874, 
  -0.033730387687683105,   0.01491992175579071,   -0.030327269807457924,   0.05811085179448128,   0.1225091814994812,   -0.011204145848751068,   0.028945311903953552,   -0.12075463682413101, 
  -0.09412460774183273,   -0.1245434433221817,   -0.14094296097755432,   -0.11321434378623962,   -0.004491639323532581,   -0.06950172781944275,   0.057380400598049164,   -0.16519814729690552, 
  -0.15770302712917328,   -0.08287535607814789,   -0.10530149191617966,   -0.1304003745317459,   -0.10945600271224976,   0.022610876709222794,   -0.012571936473250389,   -0.03671424463391304, 
  0.037519849836826324,   0.01786911115050316,   -0.038381583988666534,   -0.07341451197862625,   -0.15654556453227997,   -0.34707799553871155,   -0.058947112411260605,   0.05951634794473648, 
  -0.2025488317012787,   -0.0766097754240036,   -0.05390234664082527,   -0.017859766259789467,   -0.14610154926776886,   -0.015404787845909595,   0.11120434105396271,   -0.005739744286984205, 
  -0.002217436907812953,   0.118019238114357,   -0.09358488023281097,   -0.0798761248588562,   0.009496002458035946,   0.16052672266960144,   0.09116393327713013,   0.1083541288971901, 
  -0.010575693100690842,   0.029489776119589806,   -0.10106892883777618,   0.02415376901626587,   -0.2849116623401642,   0.05386897921562195,   -0.14377859234809875,   0.038920171558856964, 
  0.0397564172744751,   -0.08561662584543228,   0.09521456807851791,   0.1672801822423935,   0.18046236038208008,   -0.28035372495651245,   0.1565447449684143,   -0.0521400161087513, 
  -0.23682665824890137,   -0.09611789137125015,   -0.12845152616500854,   0.12709790468215942,   0.06283781677484512,   -0.28762274980545044,   -0.018260864540934563,   -0.008318987675011158, 
  -0.20472906529903412,   -0.19107986986637115,   0.07586436718702316,   0.0884048119187355,   0.004905125126242638,   -0.04819437488913536,   -0.05770299211144447,   -0.07015214115381241, 
  -0.1768539696931839,   -0.04603192210197449,   -0.10785283148288727,   0.09894206374883652,   0.19534583389759064,   0.03335631266236305,   -0.2092224359512329,   -0.3212897479534149, 
  0.028221262618899345,   0.045850422233343124,   0.13120509684085846,   0.1548009067773819,   0.06316070258617401,   -0.08715246617794037,   -0.09327712655067444,   -0.0264962799847126, 
  -0.23377680778503418,   0.08238863199949265,   0.05918790027499199,   0.08096694946289062,   0.003961979411542416,   -0.1253765970468521,   -0.09849772602319717,   -0.07755574584007263, 
  0.09368015080690384,   -0.12518739700317383,   0.13482385873794556,   0.102828249335289,   -0.008150638081133366,   -0.08896081149578094,   -0.04450676590204239,   0.1296074390411377, 
  -0.14332281053066254,   -0.031909309327602386,   0.1313522756099701,   0.14240483939647675,   0.19455035030841827,   -0.0649382695555687,   0.05125163123011589,   -0.15375186502933502, 
  -0.11677167564630508,   0.12364456802606583,   0.3474375307559967,   0.10816194862127304,   0.010591673664748669,   0.05202992632985115,   -0.19793206453323364,   -0.027931218966841698, 
  0.21246746182441711,   0.016130348667502403,   0.09750387817621231,   0.0962379053235054,   -0.1772022545337677,   -0.13907591998577118,   0.026934636756777763,   0.14438050985336304, 
  -0.1678268313407898,   -0.13725420832633972,   0.061072513461112976,   -0.09468670934438705,   -0.06635682284832001,   0.015954982489347458,   0.22051256895065308,   -0.022391479462385178, 
  0.15397964417934418,   0.044486165046691895,   -0.08476608246564865,   0.026340631768107414,   0.07159818708896637,   0.1264558881521225,   0.35324886441230774,   -0.0910036712884903, 
  -0.029217898845672607,   -0.04563867300748825,   0.002397203352302313,   0.09395607560873032,   0.23316560685634613,   0.12518644332885742,   0.12151918560266495,   -0.037282805889844894, 
  -0.1230471208691597,   0.1670318841934204,   -0.012143006548285484,   0.4561782479286194,   0.1759490668773651,   0.06058601662516594,   0.04876096174120903,   -0.11000469326972961, 
  0.06761136651039124,   -0.12188057601451874,   0.04327329248189926,   0.18437199294567108,   0.03033444471657276,   0.10553918778896332,   -0.13736169040203094,   0.23014713823795319, 
  0.09909651428461075,   0.19477500021457672,   0.11299116164445877,   -0.020836375653743744,   -0.16243548691272736,   -0.09784199297428131,   0.2457990050315857,   0.3872041404247284, 
  0.08382542431354523,   0.0040603321976959705,   -0.1043468490242958,   -0.17828775942325592,   -0.08180168271064758,   0.33771705627441406,   0.19649630784988403,   0.03744936361908913, 
  -0.19059401750564575,   -0.043111734092235565,   -0.11052186042070389,   -0.08351463079452515,   0.046048082411289215,   0.06748185306787491,   -0.01822248473763466,   -0.02436426281929016, 
  -0.11455288529396057,   -0.2719199061393738,   0.08914478123188019,   -0.08169307559728622,   0.06252606213092804,   -0.10176301002502441,   -0.05120960250496864,   0.11148487031459808, 
  0.07146137207746506,   0.0728544145822525,   0.17090030014514923,   -0.04767690971493721,   -0.3425094485282898,   -0.3673235774040222,   -0.19891227781772614,   -0.13428662717342377, 
  -0.2655641436576843,   0.0006639026687480509,   0.010654564015567303,   -0.11965060234069824,   -0.18005859851837158,   0.0005637248395942152,   -0.02212313376367092,   -0.21776220202445984, 
  -0.15685561299324036,   -0.13428542017936707,   -0.08882566541433334,   -0.16873256862163544,   0.020710792392492294,   0.07530184090137482,   -0.03556716814637184,   -0.06916515529155731, 
  -0.11311383545398712,   -0.15909923613071442,   -0.1597585678100586,   -0.0614020973443985,   0.09044882655143738,   0.036328136920928955,   0.12479730695486069,   -0.013885186985135078, 
  0.05029840022325516,   0.060457367449998856,   0.11214963346719742,   -0.026008829474449158,   0.02256622351706028,   0.04445531219244003,   0.04386960715055466,   0.030312318354845047, 
  0.08691998571157455,   0.05740227922797203,   -0.19896259903907776,   0.06558559834957123,   -0.009636123664677143,   0.0973852202296257,   0.12020894885063171,   0.012026481330394745, 
  0.003998973872512579,   -0.03468531742691994,   -0.03511065989732742,   0.024385368451476097,   -0.18211646378040314,   -0.03495625779032707,   -0.10531537979841232,   -0.0588962621986866, 
  0.14386168122291565,   0.010069649666547775,   -0.09189720451831818,   0.006236972287297249,   -0.06172898784279823,   0.14486698806285858,   0.033199723809957504,   0.008709144778549671, 
  -0.0978674590587616,   0.08873496949672699,   -0.13542287051677704,   -0.3603394329547882,   -0.06734298914670944,   0.020845385268330574,   0.028102073818445206,   0.2646282911300659, 
  0.2891015112400055,   0.171953946352005,   0.21809543669223785,   -0.039325032383203506,   0.13885609805583954,   -0.005755789577960968,   0.10096617043018341,   0.059788551181554794, 
  -0.14198173582553864,   0.009990048594772816,   -0.12789595127105713,   -0.021338874474167824,   0.054119184613227844,   -0.010192358866333961,   -0.032780759036540985,   -0.051570743322372437, 
  -0.03459624946117401,   0.07144759595394135,   0.12810249626636505,   0.08601491153240204,   0.10746511071920395,   -0.22201240062713623,   -0.19648444652557373,   -0.05971848964691162, 
  0.00907233264297247,   -0.010744533501565456,   -0.13070441782474518,   -0.0022319492418318987,   -0.22502513229846954,   -0.09753179550170898,   -0.16933634877204895,   -0.15194880962371826, 
  0.010626249015331268,   -0.06175306439399719,   -0.22581800818443298,   -0.020234229043126106,   0.0708710104227066,   0.04311008006334305,   -0.3226202428340912,   -0.05763761326670647, 
  -0.03006431646645069,   0.008333269506692886,   0.0876276046037674,   -0.017831385135650635,   -0.15279662609100342,   -0.08521305024623871,   -0.16439810395240784,   0.16067419946193695, 
  -0.08240776509046555,   0.11002201586961746,   -0.1216711476445198,   -0.15807954967021942,   0.0533430390059948,   0.10961111634969711,   0.11514152586460114,   0.2104221135377884, 
  0.10978391766548157,   -0.025578828528523445,   -0.08102703839540482,   -0.1543484479188919,   0.11243357509374619,   -0.06624425202608109,   -0.12469636648893356,   0.13027983903884888, 
  0.0877227932214737,   -0.026127368211746216,   0.04601515084505081,   -0.1624976247549057,   -0.04183400422334671,   0.05832057073712349,   0.12559399008750916,   -0.004476999863982201, 
  0.11399940401315689,   0.11548084020614624,   0.08821898698806763,   -0.021581918001174927,   0.09129268676042557,   -0.07970846444368362,   0.0008758628973737359,   0.0508369579911232, 
  -0.0052405474707484245,   0.12941423058509827,   0.05998401343822479,   0.0311100035905838,   -0.012434323318302631,   -0.11340320855379105,   0.10349373519420624,   -0.12033813446760178, 
  -0.04267720505595207,   0.038099512457847595,   0.08583636581897736,   -0.24117736518383026,   0.04255049675703049,   0.05077631026506424,   -0.1970084011554718,   -0.13635364174842834, 
  -0.0025381746236234903,   -0.10245104879140854,   -0.0820743665099144,   -0.013595640659332275,   -0.13081757724285126,   -0.13105425238609314,   -0.005627553444355726,   0.1508045345544815, 
  0.01873713545501232,   -0.022360138595104218,   -0.05283885821700096,   -0.1230301707983017,   -0.4199417233467102,   -0.28367483615875244,   -0.015634993091225624,   -0.044606249779462814, 
  0.0407196581363678,   0.015396296977996826,   0.03796645253896713,   0.2569790184497833,   -0.06388937681913376,   0.012144013307988644,   0.20733511447906494,   0.1111348494887352, 
  0.014658237807452679,   -0.07119430601596832,   -0.08207544684410095,   0.07411375641822815,   -0.2672473192214966,   0.19980022311210632,   0.1281227469444275,   0.13693375885486603, 
  0.012031853199005127,   -0.18607352674007416,   -0.15773026645183563,   -0.054873883724212646,   0.18097954988479614,   -0.07134465873241425,   0.028021259233355522,   0.03789431229233742, 
  -0.12137548625469208,   -0.12735871970653534,   -0.009681010618805885,   -0.029465246945619583,   -0.15727712213993073,   -0.03761526569724083,   -0.24835105240345,   -0.5543485879898071, 
  -0.2745237648487091,   0.12070824950933456,   -0.2506521940231323,   -0.08321746438741684,   0.2617373764514923,   -0.20666494965553284,   -0.3524763882160187,   0.09417394548654556, 
  0.09723463654518127,   0.11842527240514755,   -0.04809724539518356,   0.08833421766757965,   0.15594208240509033,   0.036085449159145355,   0.13737985491752625,   -0.15233851969242096, 
  0.017506809905171394,   0.10124199092388153,   -0.02326981909573078,   0.13833561539649963,   -0.09767400473356247,   -0.23819531500339508,   0.2429969608783722,   0.04768902435898781, 
  0.22992512583732605,   0.3202122747898102,   0.21526633203029633,   0.11295423656702042,   0.15714922547340393,   0.01759367622435093,   -0.007423012051731348,   -0.10065192729234695, 
  -0.06507822871208191,   0.09538894891738892,   -0.005826583132147789,   0.16085386276245117,   0.1605488359928131,   -0.1871771514415741,   -0.03509717062115669,   -0.17392927408218384, 
  -0.025997495278716087,   -0.1242012083530426,   -0.0058074453845620155,   -0.07876011729240417,   0.12217800319194794,   0.029166119173169136,   -0.11932379007339478,   0.13029737770557404, 
  0.02004888840019703,   -0.06025877222418785,   -0.25693029165267944,   0.13599379360675812,   -0.4064617455005646,   -0.016191426664590836,   0.06689243763685226,   -0.16269385814666748, 
  -0.11672130227088928,   0.11458069831132889,   0.10704033076763153,   0.031796254217624664,   0.09179253876209259,   0.026549940928816795,   -0.1462685465812683,   -0.029093073680996895, 
  0.04854709655046463,   0.24352431297302246,   0.00412864750251174,   -0.15322242677211761,   0.09583842754364014,   0.08074808120727539,   -0.07231222838163376,   -0.11756404489278793, 
  -0.07803372293710709,   -0.08014222234487534,   -0.08649299293756485,   -0.06913629919290543,   -0.024524834007024765,   -0.08520792424678802,   -0.1286645531654358,   0.004752015229314566, 
  0.2126849889755249,   0.0744849443435669,   -0.09299761801958084,   -0.07930422574281693,   -0.4135211408138275,   -0.2459348887205124,   0.03011276200413704,   0.136317640542984, 
  0.1820819228887558,   0.10604860633611679,   -0.06360612064599991,   -0.29847002029418945,   0.009713667444884777,   0.04581195488572121,   0.15935851633548737,   0.1667879968881607, 
  -0.15047100186347961,   -0.11594917625188828,   -0.002514550229534507,   0.11563142389059067,   0.016418125480413437,   -0.09853639453649521,   0.05602569505572319,   0.021497411653399467, 
  -0.025140127167105675,   0.15134894847869873,   0.22491614520549774,   0.10547826439142227,   -0.033656273037195206,   0.01602141372859478,   0.042844582349061966,   0.07167616486549377, 
  0.18471218645572662,   0.08414830267429352,   -0.06453543156385422,   -0.013842040672898293,   0.058858707547187805,   0.031220383942127228,   0.019560236483812332,   0.015211762860417366, 
  -0.03733476996421814,   -0.06962301582098007,   -0.02804173342883587,   -0.14867444336414337,   -0.1493525356054306,   -0.2808263599872589,   -0.13340674340724945,   -0.03084772452712059, 
  0.05618125572800636,   0.07651086151599884,   -0.1151449978351593,   0.005672542378306389,   0.048350296914577484,   -0.23909124732017517,   -0.009398561902344227,   0.04435369372367859, 
  0.14574046432971954,   -0.017642106860876083,   0.06223341077566147,   -0.08319954574108124,   0.047646816819906235,   -0.019714592024683952,   0.004767779726535082,   -0.006343686953186989, 
  -0.02455492876470089,   -0.02464544028043747,   0.010740511119365692,   0.06056057661771774,   0.05095282942056656,   0.1174285039305687,   -0.06693664938211441,   0.15272369980812073, 
  0.1767905354499817,   0.01174837350845337,   0.012550591491162777,   0.018546702340245247,   0.1351923942565918,   -0.01366936881095171,   -0.05003019794821739,   0.04697655886411667, 
  -0.03972284868359566,   -0.07269410789012909,   0.14000007510185242,   -0.1171121671795845,   -0.00205964595079422,   -0.04156496748328209,   -0.059854697436094284,   -0.17237958312034607, 
  -0.0938955768942833,   0.03717765584588051,   0.005343205761164427,   -0.201132133603096,   0.10224709659814835,   0.05959562957286835,   0.17872029542922974,   -0.0767013430595398, 
  0.029951980337500572,   -0.05117971450090408,   -0.04183707758784294,   -0.08996617794036865,   0.031097907572984695,   0.07918305695056915,   -0.022354094311594963,   -0.07910514622926712, 
  -0.16731037199497223,   -0.33343207836151123,   -0.23343396186828613,   -0.09448358416557312,   0.08718607574701309,   0.09210173785686493,   -0.09532564878463745,   -0.07186352461576462, 
  -0.3159308135509491,   -0.405020534992218,   -0.01695510372519493,   -0.10457867383956909,   0.042400848120450974,   -0.1768311709165573,   0.0394638329744339,   -0.22518324851989746, 
  -0.054353851824998856,   -0.059214767068624496,   -0.06421449780464172,   -0.07624698430299759,   -0.16547732055187225,   -0.06049387902021408,   0.005581497680395842,   0.030445558950304985, 
  -0.09264978021383286,   0.18552087247371674,   0.10596830397844315,   -0.045334525406360626,   0.00448287557810545,   -0.24036337435245514,   -0.5873585939407349,   -0.6233744621276855, 
  -0.021425724029541016,   -0.1166834831237793,   -0.08133260160684586,   0.000640090205706656,   -0.010814095847308636,   -0.08302167803049088,   -0.039812032133340836,   -0.005827832967042923, 
  0.06493324786424637,   0.06397070735692978,   -0.029099931940436363,   0.007335979957133532,   -0.03516833484172821,   -0.03461749106645584,   -0.3418099582195282,   -0.15066273510456085, 
  0.11089053004980087,   -0.07209434360265732,   -0.032743118703365326,   0.10803714394569397,   0.027206599712371826,   -0.02262115851044655,   0.2220078706741333,   0.10007554292678833, 
  0.06710787117481232,   0.06186020374298096,   0.03625406697392464,   0.08113085478544235,   0.1409272700548172,   0.4629635810852051,   -0.0234726220369339,   0.08541098982095718, 
  0.19945991039276123,   0.11183476448059082,   -0.04290325567126274,   0.008028737269341946,   -0.17948824167251587,   -0.05520399659872055,   -0.01173807680606842,   0.12298048287630081, 
  0.008257376030087471,   -0.13128672540187836,   -0.21800939738750458,   -0.37132206559181213,   -0.017577847465872765,   -0.08295877277851105,   -0.21438927948474884,   0.055101580917835236, 
  -0.2623027265071869,   -0.37122642993927,   -0.015484869480133057,   -0.0011269821552559733,   -0.07126922160387039,   -0.06405330449342728,   -0.027326928451657295,   -0.009685623459517956, 
  -0.02858664281666279,   -0.025645336136221886,   -0.059689804911613464,   -0.07482632994651794,   0.22932635247707367,   0.28159022331237793,   -0.0035808063112199306,   -0.17111726105213165, 
  -0.2432701140642166,   -0.07449285686016083,   0.08825651556253433,   0.18238511681556702,   0.23553545773029327,   0.08591875433921814,   -0.07783840596675873,   -0.21209530532360077, 
  -0.0010674172081053257,   0.06450940668582916,   0.15918295085430145,   0.16458971798419952,   0.03842050954699516,   0.22047998011112213,   0.01610664464533329,   -0.05986851081252098, 
  -0.09137646108865738,   -0.2433771789073944,   0.04610557481646538,   0.04044695571064949,   0.015109674073755741,   0.16235940158367157,   0.1630067378282547,   0.07093565911054611, 
  -0.02046821266412735,   0.10883071273565292,   0.10769803822040558,   0.07394144684076309,   0.13162915408611298,   0.03104638308286667,   -0.03488411754369736,   -0.046047113835811615, 
  -0.0025288709439337254,   -0.044104672968387604,   0.03850328177213669,   -0.02584793046116829,   -0.01299552246928215,   -0.03889916464686394,   -0.07116226851940155,   0.23617856204509735, 
  0.05479901656508446,   -0.037717439234256744,   -0.1538868099451065,   0.00953542347997427,   0.12338117510080338,   -0.11379127204418182,   0.1372731328010559,   0.04931288957595825, 
  0.24206829071044922,   0.23690876364707947,   -0.013840251602232456,   0.05239402502775192,   -0.1901424378156662,   -0.16965201497077942,   0.08510987460613251,   0.14672736823558807, 
  0.20635205507278442,   -0.11019670218229294,   0.05160237476229668,   -0.08328242599964142,   -0.12146180123090744,   -0.03256688266992569,   -0.013038121163845062,   -0.08813895285129547, 
  0.06261102855205536,   0.09323034435510635,   0.07055187225341797,   -0.10599757730960846,   -0.1513902097940445,   -0.18263201415538788,   -0.10371807962656021,   0.2868040204048157, 
  0.07011372596025467,   0.08670765906572342,   -0.0036723518278449774,   -0.050218481570482254,   0.15118169784545898,   0.15991556644439697,   -0.013175323605537415,   0.1218251958489418, 
  -0.010649657808244228,   0.02504843659698963,   -0.0131203792989254,   0.06504403054714203,   0.08628837764263153,   0.27302369475364685,   -0.17831456661224365,   0.004466430749744177, 
  0.13226160407066345,   0.08224864304065704,   0.16974127292633057,   -0.0006523043266497552,   -0.0650031641125679,   -0.015346947126090527,   -0.06088937819004059,   0.1141723096370697, 
  0.07294145226478577,   0.021516643464565277,   0.0063888211734592915,   0.003278125310316682,   -0.06966671347618103,   -0.1743171364068985,   -0.025888806208968163,   -0.04952613264322281, 
  -0.05549245700240135,   -0.07433439791202545,   -0.09849943965673447,   0.03881491348147392,   -0.17471888661384583,   0.05815880373120308,   -0.05670158192515373,   -0.20692162215709686, 
  -0.04528002813458443,   0.0296064093708992,   0.11086516827344894,   0.05522095412015915,   0.06393168866634369,   0.0767369419336319,   0.024906354025006294,   -0.05712120607495308, 
  0.06331830471754074,   -0.05777265876531601,   -0.059674449265003204,   -0.005560572259128094,   0.020037155598402023,   0.12970761954784393,   0.07005996257066727,   0.024273917078971863, 
  -0.021247806027531624,   0.04421178624033928,   0.11186230182647705,   0.16978654265403748,   0.14972345530986786,   -0.20079666376113892,   0.013805628754198551,   -0.03669868782162666, 
  -0.01649092696607113,   -0.0037387069314718246,   -0.12284640967845917,   -0.3602195382118225,   -0.1217699944972992,   0.056102145463228226,   -0.08677644282579422,   0.23802050948143005, 
  -0.04917406663298607,   -0.024832751601934433,   -0.12494980543851852,   -0.24913744628429413,   -0.05148540809750557,   0.13596108555793762,   0.16272108256816864,   0.05421656742691994, 
  0.02985033206641674,   -0.02698322758078575,   -0.0298190638422966,   0.037137407809495926,   0.07199329137802124,   0.1543344408273697,   0.14707957208156586,   -0.028681159019470215, 
  -0.06808564066886902,   0.14374004304409027,   0.18030264973640442,   0.055237866938114166,   0.0027683130465447903,   0.03404609113931656,   0.14108096063137054,   -0.027957310900092125, 
  0.11757847666740417,   -0.007829265668988228,   0.09967534244060516,   -0.04922361299395561,   -0.05156460776925087,   0.003003523452207446,   -0.010535826906561852,   -0.0017609328497201204, 
  0.0855533629655838,   -0.13958558440208435,   -0.020235620439052582,   -0.01735042780637741,   -0.04698880761861801,   -0.07137519121170044,   -0.15981127321720123,   0.043118324130773544, 
  0.07452765852212906,   -0.10922761261463165,   -0.002191337523981929,   -0.09036082774400711,   -0.034376151859760284,   0.046438101679086685,   0.043179258704185486,   -0.07899373769760132, 
  -0.05137816071510315,   0.05633404478430748,   -0.08799195289611816,   -0.218303382396698,   -0.14304400980472565,   0.03589952364563942,   -0.10829285532236099,   -0.0017103260615840554, 
  -0.06394781917333603,   0.05026349425315857,   -0.08732862770557404,   -0.06277967989444733,   0.14014913141727448,   0.04436212778091431,   -0.01913154125213623,   -0.04906105995178223, 
  0.015146411024034023,   0.17443348467350006,   0.36800795793533325,   0.2703222334384918,   0.06846676021814346,   0.1298278570175171,   0.15642620623111725,   0.040309175848960876, 
  0.13452963531017303,   0.04493489861488342,   0.08504997193813324,   0.06234222277998924,   0.10065998882055283,   0.1389675885438919,   0.10310932248830795,   -0.1772463172674179, 
  -0.24166302382946014,   -0.027132516726851463,   -0.02457660809159279,   0.0278562493622303,   -0.11612161248922348,   -0.3640698194503784,   -0.03982041776180267,   -0.0094714080914855, 
  0.0002629735681694001,   0.08931462466716766,   -0.030319733545184135,   -0.1408229023218155,   -0.17317207157611847,   -0.10907740145921707,   -0.05071147903800011,   0.0894385576248169, 
  0.11682562530040741,   0.057721931487321854,   -0.21881046891212463,   -0.2293412834405899,   -0.1463128924369812,   -0.008565329946577549,   0.08823886513710022,   0.1763203740119934, 
  0.16052132844924927,   -0.09926080703735352,   0.016805198043584824,   -0.11844835430383682,   -0.07120463252067566,   0.02201247587800026,   0.05978803709149361,   0.05260144919157028, 
  -0.47178226709365845,   0.006764800753444433,   0.05470182001590729,   -0.034032128751277924,   -0.07330826669931412,   0.030860502272844315,   -0.04420777037739754,   0.12849360704421997, 
  0.15393725037574768,   -0.046469155699014664,   -0.1259443312883377,   -0.13457491993904114,   0.10761093348264694,   0.30433720350265503,   0.027504384517669678,   -0.12430238723754883, 
  -0.05905697122216225,   -0.04114716500043869,   -0.14291028678417206,   0.3080250322818756,   -0.13709521293640137,   -0.2473301738500595,   -0.13956785202026367,   0.00629988731816411, 
  -0.1125427708029747,   -0.11246907711029053,   -0.05111800134181976,   0.18028578162193298,   0.15527281165122986,   0.3296666145324707,   0.0030285376124083996,   -0.1193515807390213, 
  -0.11165384203195572,   -0.2026292085647583,   -0.06566216051578522,   0.06507974117994308,   0.07763581722974777,   0.032034605741500854,   -0.08198501169681549,   -0.17786280810832977, 
  -0.03494301438331604,   0.08807118237018585,   0.08683039247989655,   0.10134375840425491,   -0.009333181194961071,   -0.22191140055656433,   -0.050245605409145355,   -0.07521528005599976, 
  -0.021228482946753502,   0.0014828128041699529,   -0.12025155127048492,   -0.2255401909351349,   -0.1726658195257187,   0.14978612959384918,   0.006960072088986635,   -0.017742564901709557, 
  -0.07528074085712433,   -0.04233299940824509,   0.013674065470695496,   0.12751896679401398,   0.22425079345703125,   0.07005387544631958,   0.03311050310730934,   0.013137654401361942, 
  0.08879445493221283,   0.1503220945596695,   0.19611820578575134,   0.09876741468906403,   -0.056248076260089874,   0.06277880817651749,   0.044495150446891785,   0.04732666537165642, 
  0.0993681326508522,   -0.03178432583808899,   -0.035007089376449585,   -0.03434883803129196,   -0.07711555063724518,   -0.026763824746012688,   -0.022555379197001457,   -0.018282385542988777, 
  0.04448222368955612,   0.0925687924027443,   -0.09681632369756699,   -0.026590624824166298,   -0.04666979983448982,   0.07122036069631577,   -0.022118287160992622,   -0.203388974070549, 
  0.009196947328746319,   0.08648418635129929,   0.2094394862651825,   0.3484739363193512,   0.19149823486804962,   -0.07219959050416946,   -0.139674112200737,   -0.041976701468229294, 
  0.0758395865559578,   0.26446324586868286,   0.2071455419063568,   0.20448267459869385,   0.11692753434181213,   -0.24451753497123718,   0.011453419923782349,   -0.047397591173648834, 
  -0.27335262298583984,   -0.3757109045982361,   -0.20018598437309265,   0.0804607942700386,   0.17129220068454742,   0.015954868867993355,   -0.16352874040603638,   -0.3755321502685547, 
  -0.2570853531360626,   -0.1457590013742447,   0.18268296122550964,   0.4690450429916382,   0.07311254739761353,   -0.013453789055347443,   -0.04283770173788071,   0.1326954960823059, 
  -0.06588415056467056,   0.12327546626329422,   0.0987386628985405,   0.00987959560006857,   -0.0035305272322148085,   0.2333395630121231,   0.16634193062782288,   -0.026321927085518837, 
  -0.036287806928157806,   -0.07286284863948822,   0.0002203363401349634,   0.0658617690205574,   9.28581903281156e-06,   -0.09649976342916489,   -0.024278251454234123,   -0.009062929078936577, 
  -0.02171613648533821,   -0.0660778358578682,   0.050750311464071274,   -0.02415776252746582,   -0.12158122658729553,   -0.16167576611042023,   -0.026069074869155884,   0.07552886754274368, 
  -0.07671497762203217,   -0.0036887165624648333,   0.189164936542511,   0.093768410384655,   -0.022823845967650414,   0.08094632625579834,   0.08788921684026718,   0.13901326060295105, 
  0.055865928530693054,   -0.09926880151033401,   0.09959686547517776,   0.10346167534589767,   0.006665805820375681,   -0.03302304819226265,   -0.0310478825122118,   0.09985359758138657, 
  -0.0597861111164093,   -0.04161636903882027,   0.009992336854338646,   0.03731725364923477,   0.03996578976511955,   0.17651347815990448,   -0.30789652466773987,   -0.14902542531490326, 
  0.0396302230656147,   -0.02252543717622757,   -0.056860245764255524,   0.0704430490732193,   -0.05386948212981224,   0.009336414746940136,   -0.028278686106204987,   -0.06849600374698639, 
  -0.1191350519657135,   -0.06955371797084808,   -0.0016631516627967358,   0.23797772824764252,   0.06722360104322433,   -0.04808869585394859,   0.11891769617795944,   0.06677030771970749, 
  -0.108611561357975,   -0.28632500767707825,   -0.10713507235050201,   -0.028823155909776688,   -0.040734753012657166,   -0.14737826585769653,   -0.11994818598031998,   -0.035125426948070526, 
  -0.06377240270376205,   0.11210740357637405,   0.08704543858766556,   -0.06842029839754105,   0.08978240191936493,   0.08571147173643112,   0.11366809159517288,   0.19076943397521973, 
  0.23856613039970398,   0.028436429798603058,   0.006720217876136303,   0.07317240536212921,   0.14125826954841614,   0.2608788013458252,   0.0357491709291935,   0.20745207369327545, 
  0.048438459634780884,   0.027733996510505676,   -0.19649387896060944,   0.03621997311711311,   -0.04521913826465607,   -0.32768118381500244,   0.15080536901950836,   -0.11207415163516998, 
  -0.02285665273666382,   -0.07084837555885315,   -0.269192636013031,   -0.07038219273090363,   -0.04313286021351814,   -0.021250640973448753,   -0.12632758915424347,   0.012892830185592175, 
  0.20191802084445953,   0.08807343989610672,   0.014046858996152878,   -0.05203970894217491,   -0.1901727020740509,   -0.18251550197601318,   0.026508968323469162,   -0.123356394469738, 
  -0.024740586057305336,   -0.0509331189095974,   -0.09081155806779861,   -0.12152569741010666,   -0.19445598125457764,   -0.08193154633045197,   -0.2376769781112671,   -0.033482592552900314, 
  -0.09638498723506927,   -0.3272792100906372,   -0.21167971193790436,   -0.038408998399972916,   -0.11897259950637817,   0.1387697160243988,   0.3571959137916565,   0.1553073525428772, 
  -0.09243091195821762,   0.16572926938533783,   0.12147495150566101,   0.12649615108966827,   -0.07978305220603943,   -0.010732482187449932,   0.15748713910579681,   0.18899761140346527, 
  0.25468409061431885,   -0.03939656540751457,   0.042377907782793045,   -0.16303953528404236,   -0.07454679906368256,   0.12550795078277588,   0.30490195751190186,   0.2865806519985199, 
  0.008419912308454514,   -0.10456084460020065,   -0.20715004205703735,   -0.38774073123931885,   0.29175323247909546,   0.2264758050441742,   -0.141548290848732,   0.026270154863595963, 
  0.09671730548143387,   -0.26454028487205505,   -0.3574441373348236,   -0.1011350005865097,   -0.24870331585407257,   0.11182983219623566,   -0.03667699545621872,   -0.00468239514157176, 
  0.1138472855091095,   0.05099841579794884,   -0.11419270187616348,   -0.0823453739285469,   -0.0441601388156414,   0.21581947803497314,   -0.08556639403104782,   -0.054802123457193375, 
  -0.09439949691295624,   0.06688616424798965,   0.01205218955874443,   -0.06036132574081421,   0.011574559845030308,   -0.1723160594701767,   -0.1811647117137909,   -0.09804915636777878, 
  0.11077314615249634,   0.04600211977958679,   -0.007161709479987621,   0.039115920662879944,   0.01353976409882307,   0.10765773057937622,   0.13149940967559814,   -0.0052205962128937244, 
  0.023954814299941063,   -0.0620325431227684,   0.33134207129478455,   0.07855726033449173,   -0.01964956521987915,   -0.09449847787618637,   -0.08894306421279907,   -0.2162623107433319, 
  0.03943198546767235,   0.13180036842823029,   -0.06971486657857895,   -0.14130234718322754,   -0.014985526911914349,   -0.09368114918470383,   -0.058631815016269684,   0.08399523794651031, 
  -0.04199577495455742,   -0.07802901417016983,   -0.09477722644805908,   -0.10609295964241028,   0.01654227450489998,   -0.08730540424585342,   -0.06180417165160179,   0.007784675341099501, 
  0.15794481337070465,   0.1727389693260193,   0.03305906429886818,   -0.21672286093235016,   -0.16749821603298187,   -0.13390576839447021,   0.19596511125564575,   0.2470543384552002, 
  0.1505306214094162,   0.0024435734376311302,   -0.02747015655040741,   -0.06038627028465271,   -0.14588163793087006,   0.14785334467887878,   0.12858320772647858,   -0.019158735871315002, 
  0.05990123376250267,   0.26922833919525146,   0.13415874540805817,   -0.21440845727920532,   -0.3725011646747589,   -0.027703694999217987,   -0.04537045955657959,   0.1006440818309784, 
  0.04082203283905983,   -0.18428996205329895,   -0.08084667474031448,   0.026507001370191574,   0.006169590633362532,   0.10750884562730789,   0.037618350237607956,   0.01917746663093567, 
  -0.09280124306678772,   -0.004188225604593754,   -0.05332028493285179,   0.08490486443042755,   0.11962706595659256,   0.06598169356584549,   0.037079691886901855,   0.05490805581212044, 
  0.048734188079833984,   -0.04932688921689987,   -0.02853739634156227,   0.0511118620634079,   -0.23783326148986816,   0.11019307374954224,   -0.0351422056555748,   -0.0696721225976944, 
  0.035039301961660385,   0.024589266628026962,   0.005232116673141718,   0.06435812264680862,   -0.06103631854057312,   -0.19357998669147491,   -0.07522353529930115,   0.19946448504924774, 
  0.0034891797695308924,   0.09406650066375732,   0.11391375958919525,   0.22399389743804932,   0.12929768860340118,   -0.13865458965301514,   0.15949241816997528,   0.031092962250113487, 
  0.09506463259458542,   0.13642722368240356,   0.19968627393245697,   -0.2143842577934265,   -0.08316414058208466,   -0.1760660707950592,   -0.12139761447906494,   -0.169124573469162, 
  0.04256921634078026,   0.15918362140655518,   0.03522450476884842,   0.0232535470277071,   -0.027763739228248596,   0.06751830130815506,   0.03357016295194626,   0.024861333891749382, 
  0.15197040140628815,   0.11277458071708679,   -0.04106556996703148,   0.037721194326877594,   0.02392173931002617,   0.0581984743475914,   0.1663910448551178,   0.11293905973434448, 
  0.19735153019428253,   -0.12063552439212799,   0.010132236406207085,   0.01517318282276392,   -0.013389606028795242,   0.04483598470687866,   0.1113068237900734,   0.057161279022693634, 
  -0.07192576676607132,   -0.03121904656291008,   -0.05002966150641441,   0.021017633378505707,   0.02148490957915783,   -0.08284366875886917,   0.08333868533372879,   0.0866367295384407, 
  -0.09117277711629868,   -0.20263472199440002,   -0.4356648325920105,   -0.27234959602355957,   -0.13885141909122467,   -0.01849944330751896,   0.06899648904800415,   0.22751633822917938, 
  -0.034758128225803375,   -0.10372967272996902,   -0.14577887952327728,   -0.04220312461256981,   -0.059896524995565414,   0.018254753202199936,   0.05230812355875969,   0.20170672237873077, 
  0.07629097253084183,   0.04114895313978195,   0.017097702249884605,   0.08665855973958969,   0.09360341727733612,   0.12249059975147247,   0.06452740728855133,   -0.05814257264137268, 
  -0.18253278732299805,   -0.08303885161876678,   -0.013270964846014977,   0.04618503525853157,   -0.0008782970835454762,   -0.07419173419475555,   -0.28132882714271545,   -0.26549607515335083, 
  -0.20173253118991852,   0.0949050709605217,   0.015146257355809212,   -0.0013439443428069353,   0.051850538700819016,   -0.09940855205059052,   0.02500254102051258,   -0.12839971482753754, 
  -0.08229199051856995,   0.005823688115924597,   0.03226346895098686,   -0.0050257849507033825,   -0.10806978493928909,   -0.1698695570230484,   -0.47132954001426697,   -0.4965076148509979, 
  0.049327313899993896,   -0.07627224922180176,   -0.049358952790498734,   -0.06394696980714798,   -0.1487213671207428,   -0.4541293978691101,   0.1460675448179245,   0.007940482348203659, 
  -0.11114413291215897,   -0.06274516135454178,   0.1292969286441803,   -0.020859425887465477,   -0.5131503343582153,   -0.12600043416023254,   0.029086178168654442,   -0.07443677634000778, 
  -0.16422510147094727,   -0.023853886872529984,   -0.09609592705965042,   -0.0027850549668073654,   0.13654270768165588,   0.10431858152151108,   -0.020179450511932373,   -0.03462893143296242, 
  -0.0028750859200954437,   0.06864044070243835,   0.07284785062074661,   0.1301238238811493,   0.09701333940029144,   0.09116866439580917,   -0.05060744285583496,   0.050349682569503784, 
  -0.13798348605632782,   0.15138958394527435,   0.05475073680281639,   0.07791467010974884,   0.0014527059393003583,   -0.021007779985666275,   -0.05873095989227295,   0.030836433172225952, 
  0.009710430167615414,   -0.03754940629005432,   0.0003699710941873491,   0.013885606080293655,   0.010226207785308361,   0.02173638716340065,   -0.19895151257514954,   -0.3869805335998535, 
  -0.24751749634742737,   -0.04767067730426788,   -0.004867625422775745,   0.07322891801595688,   -0.0756499245762825,   -0.05903727561235428,   -0.07478614151477814,   -0.03803236037492752, 
  -0.16810138523578644,   0.13348105549812317,   0.15582911670207977,   0.031609103083610535,   0.08432265371084213,   0.07062648981809616,   0.12144353985786438,   0.0434546172618866, 
  -0.153340145945549,   -0.00396862905472517,   -0.029284801334142685,   -0.010119209066033363,   -0.12482091039419174,   -0.02855224721133709,   -0.11792795360088348,   0.032995980232954025, 
  0.007805549539625645,   0.12271147221326828,   0.07692434638738632,   -0.016055390238761902,   -0.033302828669548035,   -0.004562114831060171,   -0.07228168845176697,   -0.017590070143342018, 
  0.03568834066390991,   0.06664133071899414,   -0.010422442108392715,   0.01746998354792595,   0.016233421862125397,   -0.0232580304145813,   0.07087402045726776,   -0.24469679594039917, 
  0.04481998458504677,   -0.22419826686382294,   -0.11831409484148026,   -0.04154064506292343,   -0.03424467891454697,   -0.003285246202722192,   -0.12593264877796173,   0.11408552527427673, 
  -0.0889211967587471,   0.05499813333153725,   0.002504217205569148,   -0.11563084274530411,   -0.07155843079090118,   -0.00517184566706419,   0.04461054503917694,   -0.1394801139831543, 
  -0.1435186266899109,   -0.40927377343177795,   -0.12292857468128204,   -0.13940037786960602,   0.01637117750942707,   -0.07278470695018768,   -0.12937018275260925,   -0.20507746934890747, 
  -0.4453592300415039,   0.09054034948348999,   -0.026822112500667572,   -0.009558587335050106,   0.15639273822307587,   0.023510945960879326,   -0.0370701365172863,   -0.2615702450275421, 
  0.03149481117725372,   0.07559926807880402,   -0.08284427225589752,   0.1039065569639206,   0.0033151565585285425,   -0.2027636170387268,   -0.16709601879119873,   -0.045828886330127716, 
  -0.02323078364133835,   0.06860974431037903,   -0.11935126781463623,   -0.035219673067331314,   -0.18732818961143494,   0.03131876885890961,   0.18525639176368713,   0.02552521415054798, 
  0.10416408628225327,   0.11833460628986359,   0.07395511865615845,   0.03544749692082405,   -0.09933508187532425,   0.012514508329331875,   -0.007828077301383018,   0.012052139267325401, 
  -0.06592600047588348,   0.05298079922795296,   0.055433813482522964,   -0.0008311130804941058,   -0.06708254665136337,   -0.1985093355178833,   -0.2762097120285034,   0.013894235715270042, 
  0.14864195883274078,   -0.08907792717218399,   -0.10497130453586578,   -0.18484877049922943,   -0.4482947885990143,   -0.3029545247554779,   0.15380361676216125,   0.16645371913909912, 
  -0.1533353626728058,   -0.015966050326824188,   0.15557295083999634,   -0.07699570804834366,   -0.17310862243175507,   0.1565876454114914,   -0.0020999712869524956,   0.14134985208511353, 
  -0.04145156219601631,   0.0384625606238842,   0.07146263867616653,   0.06455521285533905,   -0.029790878295898438,   0.025332152843475342,   -0.07744000852108002,   -0.084669329226017, 
  0.05663864687085152,   0.2042454332113266,   0.06446576118469238,   -0.13019724190235138,   -0.013161435723304749,   -0.056127071380615234,   -0.024385033175349236,   -0.0325474850833416, 
  0.003099627560004592,   -0.1642264574766159,   -0.09990084916353226,   0.07035955786705017,   -0.002026252681389451,   -0.05683225393295288,   0.11386522650718689,   -0.02541334368288517, 
  0.025900429114699364,   -0.006749101914465427,   -0.10943960398435593,   -0.2964577376842499,   -0.17553041875362396,   0.13178229331970215,   0.0929989293217659,   0.17212693393230438, 
  0.17079666256904602,   0.08553442358970642,   0.04049527272582054,   -0.19343096017837524,   0.02525901421904564,   0.05311986431479454,   0.15611819922924042,   0.25378847122192383, 
  0.23821689188480377,   -0.19722098112106323,   -0.16749770939350128,   -0.22316664457321167,   -0.08360067009925842,   -0.06501820683479309,   0.18934336304664612,   0.10550106316804886, 
  -0.13520227372646332,   -0.0707026869058609,   -0.059635233134031296,   0.036771200597286224,   0.03844086080789566,   0.08746323734521866,   0.07472430914640427,   0.03316917642951012, 
  0.16747282445430756,   -0.026242243126034737,   0.12149422615766525,   0.07445777952671051,   0.10243262350559235,   0.16856659948825836,   0.21769285202026367,   -0.09296173602342606, 
  0.04796474799513817,   0.024651266634464264,   -0.08019330352544785,   -0.006037477869540453,   0.00569674139842391,   0.050791602581739426,   -0.001805091742426157,   -0.01876542530953884, 
  -0.003768634982407093,   -0.16066913306713104,   -0.21425184607505798,   -0.28423288464546204,   -0.4737507104873657,   -0.0530904121696949,   -0.14345967769622803,   -0.03570013865828514, 
  -0.19643710553646088,   -0.1771920770406723,   -0.015742572024464607,   0.08726874738931656,   0.033436380326747894,   -0.22243861854076385,   -0.10494983941316605,   -0.016430174931883812, 
  0.049482524394989014,   -0.21922503411769867,   -0.45143306255340576,   0.02550407685339451,   -0.13139766454696655,   -0.11402537673711777,   -0.0545286200940609,   -0.12529955804347992, 
  -0.0462716668844223,   0.06302355229854584,   0.04519611969590187,   -0.06904491037130356,   0.028587397187948227,   -0.06890882551670074,   -0.05758381262421608,   0.02596105821430683, 
  0.049915608018636703,   0.028061624616384506,   0.059762727469205856,   -0.026753442361950874,   0.07748353481292725,   0.05891891568899155,   0.10909785330295563,   0.0670948401093483, 
  0.11786610633134842,   -0.02715039812028408,   -0.03703635558485985,   0.0956113412976265,   -0.24676984548568726,   0.011494648642838001,   -0.15304847061634064,   -0.013856720179319382, 
  0.04466070979833603,   0.046433236449956894,   -0.2984064221382141,   0.06878349930047989,   0.15036575496196747,   0.04027971997857094,   0.2626236081123352,   -0.03156187757849693, 
  -0.12460721284151077,   -0.04329691082239151,   0.02126665972173214,   0.10903594642877579,   0.06523873656988144,   0.07685808092355728,   0.1030796468257904,   0.07602667063474655, 
  0.08542173355817795,   -0.15369942784309387,   -0.030683763325214386,   -0.023043382912874222,   -0.01710021309554577,   0.038858529180288315,   -0.299519807100296,   -0.2821876108646393, 
  -0.24938617646694183,   -0.051578983664512634,   0.0945264920592308,   0.07486976683139801,   -0.03147682547569275,   -0.3921034038066864,   -0.34853866696357727,   0.04590986296534538, 
  0.13846427202224731,   0.09485109150409698,   0.09373639523983002,   -0.1542610377073288,   -0.003301347838714719,   -0.13367196917533875,   0.1534864455461502,   0.04970811307430267, 
  0.16546611487865448,   0.16688783466815948,   -0.03977499529719353,   -0.15154267847537994,   -0.1433427333831787,   -0.15650714933872223,   -0.08696769922971725,   -0.11998286843299866, 
  -0.10031860321760178,   0.17981722950935364,   0.05660664290189743,   0.10102643072605133,   0.050968416035175323,   0.06574658304452896,   -0.024851251393556595,   -0.1037885844707489, 
  0.07148918509483337,   0.1299816071987152,   0.09131024777889252,   0.032981906086206436,   -0.041146811097860336,   -0.1614355742931366,   -0.058507516980171204,   -0.19168642163276672, 
  -0.007356020621955395,   -0.06409619003534317,   0.020594829693436623,   0.19620700180530548,   -0.05733732134103775,   -0.26273617148399353,   -0.16668279469013214,   -0.1042671948671341, 
  0.06245169788599014,   0.1350996196269989,   0.03379632532596588,   -0.11255542933940887,   -0.11555170267820358,   0.04495992884039879,   0.0074215177446603775,   0.05045197904109955, 
  0.06360223144292831,   -0.027795927599072456,   -0.09847646206617355,   -0.1324012726545334,   -0.05055272579193115,   0.03311183303594589,   0.0914146900177002,   0.050566017627716064, 
  0.021234655752778053,   0.04507461190223694,   0.029179522767663002,   -0.03713477402925491,   -0.11345802247524261,   -0.042638570070266724,   0.008344974368810654,   -0.001085789641365409, 
  0.026416471228003502,   0.09073042124509811,   -0.08221380412578583,   -0.020693374797701836,   0.06568718701601028,   0.10151021182537079,   0.007388915400952101,   -0.0055549256503582, 
  -0.037323594093322754,   0.05613558739423752,   0.17584380507469177,   0.1649586707353592,   0.09234055131673813,   -0.06038711220026016,   -0.14107440412044525,   -0.3720717430114746, 
  0.12805697321891785,   0.22822017967700958,   0.15992684662342072,   -0.10047756880521774,   -0.0342346653342247,   0.12884430587291718,   0.09148339927196503,   -0.07278738170862198, 
  0.2951531410217285,   0.33152854442596436,   0.1832711100578308,   -0.10793840885162354,   -0.12256061285734177,   -0.03751329332590103,   0.14855442941188812,   0.3276909291744232, 
  0.3058216869831085,   0.09976784884929657,   0.06183844059705734,   -0.14903540909290314,   -0.20415383577346802,   -0.057979509234428406,   0.06740322709083557,   -0.08345498144626617, 
  -0.12667633593082428,   -0.19019027054309845,   -0.20537704229354858,   -0.0918627679347992,   -0.06536383926868439,   -0.032763950526714325,   0.02716904506087303,   0.13157428801059723, 
  0.10234172642230988,   -0.02379472181200981,   -0.180791974067688,   0.07755599915981293,   -0.04310750216245651,   0.08565007150173187,   0.015357580035924911,   -0.11458740383386612, 
  -0.1552354395389557,   -0.24100160598754883,   0.027900192886590958,   0.12604111433029175,   0.16029220819473267,   0.1547088772058487,   0.10686276853084564,   -0.09931352734565735, 
  -0.22695446014404297,   0.010290473699569702,   0.001980959437787533,   -0.0030960598960518837,   0.08646534383296967,   -0.182899609208107,   -0.22992266714572906,   -0.1335664987564087, 
  -0.0406765341758728,   0.023015262559056282,   -0.11648962646722794,   -0.04867660254240036,   -0.07978753000497818,   -0.11570476740598679,   -0.22784070670604706,   0.0760340616106987, 
  0.006546393968164921,   0.16424132883548737,   0.11933407932519913,   0.03100593201816082,   0.003640305483713746,   -0.24877218902111053,   0.3038751482963562,   0.20419706404209137, 
  0.21407689154148102,   0.14196805655956268,   0.19380788505077362,   -0.09178948402404785,   -0.046739790588617325,   0.023562010377645493,   -0.0022811484523117542,   -0.038995396345853806, 
  0.0643053650856018,   0.04660604149103165,   0.07426698505878448,   0.14843778312206268,   -0.05341191962361336,   -0.038583431392908096,   -0.056157879531383514,   -0.09241458773612976, 
  -0.17407213151454926,   -0.1264275312423706,   -0.20581169426441193,   -0.07231709361076355,   -0.04927370324730873,   -0.09788943827152252,   0.0068944524973630905,   0.2132805734872818, 
  0.07308225333690643,   -0.29074934124946594,   -0.1591104120016098,   -0.23882171511650085,   -0.19687315821647644,   0.05086008831858635,   0.08872891217470169,   -0.27016112208366394, 
  0.0991974025964737,   -0.05789710208773613,   -0.1909770965576172,   -0.15532395243644714,   -0.035130828619003296,   0.04956791549921036,   -0.048015184700489044,   -0.3691997826099396, 
  0.08015239238739014,   -0.11778184771537781,   0.030814191326498985,   0.05331368371844292,   0.08845435082912445,   0.11782226711511612,   -0.01126361545175314,   0.11564570665359497, 
  -0.10177911072969437,   0.0789112001657486,   0.040402621030807495,   0.13848242163658142,   -0.010911770164966583,   -0.04097197577357292,   0.03417329862713814,   0.029798196628689766, 
  0.11833613365888596,   0.09390775114297867,   0.024783793836832047,   -0.05610400810837746,   0.11527761071920395,   -0.01448055449873209,   0.07278786599636078,   -0.04155488684773445, 
  0.06413311511278152,   0.05270452797412872,   0.03135623782873154,   -0.06157779321074486,   0.006072018761187792,   -0.017461827024817467,   -0.058265991508960724,   -0.06361332535743713, 
  -0.0924174040555954,   -0.18464921414852142,   -0.29310816526412964,   -0.03166603669524193,   -0.03379190340638161,   -0.10000275820493698,   -0.3147904872894287,   0.08407042175531387, 
  0.03654008358716965,   -0.1557326316833496,   -0.017919503152370453,   0.015757648274302483,   -0.02966742031276226,   -0.07688287645578384,   -0.002456909976899624,   -0.08711791038513184, 
  0.07285872101783752,   -0.056109264492988586,   0.16086570918560028,   0.13689687848091125,   -0.037449534982442856,   -0.05231410637497902,   -0.2571956515312195,   -0.2041294127702713, 
  0.032948270440101624,   0.18155501782894135,   0.3360203206539154,   -0.027758926153182983,   -0.07853464782238007,   -0.011745174415409565,   -0.21038460731506348,   0.02998487465083599, 
  0.041260726749897,   -0.003965663257986307,   -0.2717471718788147,   -0.181888148188591,   -0.12297865748405457,   -0.15369880199432373,   0.03810965642333031,   0.08812955021858215, 
  -0.14296630024909973,   -0.08743234723806381,   -0.03201465308666229,   0.04140353575348854,   -0.07874758541584015,   0.12955109775066376,   -0.1011076346039772,   -0.19848960638046265, 
  -0.09206940978765488,   0.08098115026950836,   0.06447000056505203,   0.0131157161667943,   -0.05518919229507446,   -0.11276436597108841,   -0.23634149134159088,   -0.05326886847615242, 
  -0.06796500831842422,   -0.07274879515171051,   0.07550530135631561,   0.0830523818731308,   -0.19644032418727875,   -0.2963851988315582,   -0.24994434416294098,   0.0015821846900507808, 
  -0.005497218109667301,   -0.10950863361358643,   -0.09127004444599152,   -0.07508007436990738,   -0.2600041627883911,   -0.1012282446026802,   0.0003871657536365092,   0.11073862761259079, 
  0.004087446723133326,   0.014603350311517715,   -0.13893096148967743,   0.0449698306620121,   0.0368976853787899,   0.13940046727657318,   0.022635195404291153,   0.08126496523618698, 
  -0.023675106465816498,   0.05408737063407898,   0.03844161704182625,   -0.026299070566892624,   -0.038535986095666885,   -0.06010553985834122,   -0.015393930487334728,   0.017813244834542274, 
  -0.08642028272151947,   -0.10812608152627945,   -0.3169597089290619,   -0.1853475719690323,   -0.0967545360326767,   0.052070412784814835,   0.02306515723466873,   -0.23759737610816956, 
  -0.24584119021892548,   -0.10673064738512039,   -0.2496660202741623,   0.055718015879392624,   0.10559674352407455,   -0.22230535745620728,   -0.023233545944094658,   0.02611268125474453, 
  -0.021325981244444847,   0.13613946735858917,   0.19212330877780914,   0.015750661492347717,   0.09182929247617722,   0.10375291109085083,   0.01241330523043871,   0.019800463691353798, 
  0.04942623898386955,   0.09346744418144226,   -0.06231742352247238,   0.06801166385412216,   0.0350218303501606,   -0.13539819419384003,   -0.1619996875524521,   -0.0758579671382904, 
  0.07856716960668564,   0.008826471865177155,   -0.03604554757475853,   -0.11154425889253616,   -0.15636038780212402,   -0.11702890694141388,   -0.061231181025505066,   -0.03195270150899887, 
  0.06926020234823227,   0.033124882727861404,   0.001900680479593575,   -0.36050158739089966,   -0.09948811680078506,   0.08715157210826874,   -0.15186357498168945,   0.12294025719165802, 
  0.024092629551887512,   -0.07680191844701767,   -0.16298934817314148,   -0.06633704900741577,   0.03250405937433243,   0.18064889311790466,   0.1282453089952469,   0.1631818264722824, 
  -0.15290305018424988,   0.046947602182626724,   0.010415919125080109,   -0.04003559425473213,   0.06164870038628578,   0.04894622415304184,   -0.16369964182376862,   -0.04103720188140869, 
  0.05174708366394043,   -0.20799358189105988,   0.004039321560412645,   0.07749441266059875,   -0.05988225340843201,   0.12942318618297577,   0.12482662498950958,   -0.04338601231575012, 
  -0.0748632550239563,   -0.039211682975292206,   -0.006795335561037064,   0.07136429846286774,   -0.09110096096992493,   0.0927899107336998,   -0.0037155714817345142,   -0.03793405368924141, 
  -0.13825184106826782,   -0.21143978834152222,   0.022302869707345963,   -0.19422726333141327,   0.04008257016539574,   0.02691742405295372,   0.023113593459129333,   -0.0434817299246788, 
  -0.02202075719833374,   0.06512186676263809,   -0.018013037741184235,   -0.29527097940444946,   -0.2845686674118042,   -0.10157956182956696,   -0.2503969371318817,   0.06053158640861511, 
  -0.007037631701678038,   -0.022799082100391388,   -0.038337208330631256,   0.32973554730415344,   0.12588061392307281,   0.012229394167661667,   -0.09348585456609726,   0.02598574385046959, 
  0.07292989641427994,   0.05946744605898857,   0.2623507082462311,   0.1589541733264923,   0.12728002667427063,   -0.162000834941864,   -0.2214609980583191,   0.15212111175060272, 
  0.17993007600307465,   0.11081717163324356,   -0.12122445553541183,   0.03597461059689522,   0.022135959938168526,   -0.172612726688385,   -0.07183132320642471,   -0.20962998270988464, 
  0.04364125803112984,   -0.10923095792531967,   -0.07227374613285065,   -0.031466543674468994,   -0.05276906490325928,   -0.058317799121141434,   -0.3817059099674225,   -0.16039997339248657, 
  -0.07137017697095871,   0.04151087999343872,   0.07527782768011093,   0.023968175053596497,   0.001895720954053104,   -0.3080556094646454,   0.06337855756282806,   0.23396794497966766, 
  0.0787353515625,   -0.10628031194210052,   0.19854477047920227,   -0.08909256756305695,   -0.0952300876379013,   -0.04937513545155525,   0.08877397328615189,   -0.03935655951499939, 
  0.05677245557308197,   -0.0735696330666542,   0.012380991131067276,   -0.11176225543022156,   0.05346465855836868,   0.07730237394571304,   0.1512807160615921,   0.15123137831687927, 
  -0.07864954322576523,   -0.014835099689662457,   -0.026279812678694725,   0.05046579986810684,   -0.1252363622188568,   0.16203777492046356,   0.06353601813316345,   -0.08604587614536285, 
  0.027491210028529167,   -0.0021789767779409885,   -0.06606220453977585,   -0.28792986273765564,   0.29295751452445984,   -0.3161989152431488,   -0.0409100167453289,   -0.10164977610111237, 
  -0.09470365196466446,   0.04120892286300659,   -0.08479112386703491,   0.01083577424287796,   -0.10152651369571686,   -0.035680219531059265,   0.05913366749882698,   -0.032598309218883514, 
  0.0704217404127121,   0.08775485306978226,   0.03546595200896263,   -0.08542351424694061,   -0.09471499174833298,   0.04891981557011604,   0.1445654034614563,   -0.02021520957350731, 
  0.1735389530658722,   0.02501666732132435,   0.03001496009528637,   0.008804825134575367,   -0.01887335628271103,   -0.005073176231235266,   0.008394486270844936,   -0.03016950935125351, 
  -0.08690748363733292,   -0.007635284215211868,   -0.025410445407032967,   -0.04736337065696716,   -0.019193140789866447,   -0.2553691864013672,   -0.28673258423805237,   -0.11547437310218811, 
  -0.062397632747888565,   0.041170988231897354,   -0.023689445108175278,   -0.016244815662503242,   -0.23122209310531616,   -0.019570298492908478,   -0.011649472638964653,   0.055768903344869614, 
  0.09867654740810394,   -0.20554080605506897,   -0.17510980367660522,   -0.009358863346278667,   -0.09650126099586487,   0.06776183843612671,   -0.01382574625313282,   0.02447815053164959, 
  0.0700891837477684,   -0.001390094286762178,   0.03660249710083008,   0.050148431211709976,   0.024087190628051758,   0.04626055434346199,   -0.12473517656326294,   0.059550754725933075, 
  0.12486506998538971,   -0.03817574307322502,   -0.12091492116451263,   -0.06164221093058586,   0.10480499267578125,   -0.012251336127519608,   -0.008371593430638313,   -0.0690198689699173, 
  -0.0635337382555008,   -0.10371948778629303,   -0.11213645339012146,   -0.05472426861524582,   0.027595458552241325,   0.023777127265930176,   -0.1974177062511444,   -0.2417721152305603, 
  -0.013422233983874321,   -0.05858391150832176,   -0.12438416481018066,   -0.007171586621552706,   -0.07279287278652191,   -0.04365123063325882,   0.13019999861717224,   0.2641284465789795, 
  0.1721806526184082,   0.12392184883356094,   -0.08413922041654587,   -0.07965447753667831,   0.09143350273370743,   0.1454501748085022,   0.01882782392203808,   0.14588496088981628, 
  -0.057327162474393845,   -0.0304913017898798,   0.09676934033632278,   0.07336890697479248,   -0.12799599766731262,   -0.09002871066331863,   0.16228696703910828,   0.04882742464542389, 
  0.07211168110370636,   0.1886073499917984,   0.008352281525731087,   -0.04248308390378952,   0.06592302769422531,   -0.0699845403432846,   -0.0038297632709145546,   -0.016592541709542274, 
  0.08242408186197281,   -0.01740342378616333,   0.005401191301643848,   0.04475250467658043,   0.18293598294258118,   0.30351170897483826,   -0.11927510797977448,   0.015342431142926216, 
  -0.10952447354793549,   -0.17479220032691956,   -0.1224779412150383,   0.029816623777151108,   0.1730452924966812,   -0.1326415240764618,   -0.03796599060297012,   -0.09749981760978699, 
  -0.06461560726165771,   -0.04833588749170303,   -0.18714158236980438,   -0.08292777091264725,   0.05654036998748779,   0.001781212748028338,   0.027043139562010765,   -0.15282556414604187, 
  -0.12582111358642578,   -0.18996194005012512,   -0.07052937895059586,   -0.018173933029174805,   -0.04296647384762764,   -0.08222157508134842,   -0.06870061904191971,   -0.310525506734848, 
  -0.0945044755935669,   -0.07661154866218567,   -0.13946853578090668,   -0.06160951405763626,   0.2695101201534271,   0.22294209897518158,   0.09926627576351166,   -0.07173512876033783, 
  0.0508507639169693,   -0.18198145925998688,   -0.14058615267276764,   -0.006819873582571745,   0.09787642955780029,   0.011621878482401371,   0.13742989301681519,   0.10632650554180145, 
  -0.21253924071788788,   -0.09758943319320679,   -0.06683679670095444,   -0.04037737473845482,   -0.027704007923603058,   0.01741117425262928,   0.029647544026374817,   -0.2238575667142868, 
  -0.04459356144070625,   -0.0841483548283577,   -0.06323204934597015,   -0.06823910027742386,   -0.2142333686351776,   -0.21406075358390808,   -0.007709943223744631,   0.022957682609558105, 
  0.014137862250208855,   -0.2783287465572357,   -0.07008439302444458,   0.17250971496105194,   -0.11575451493263245,   0.06629829108715057,   -0.021118726581335068,   -0.03268493711948395, 
  -0.13988621532917023,   -0.23395660519599915,   -0.03781979903578758,   0.19617995619773865,   0.1293298900127411,   0.17696991562843323,   -0.2091420590877533,   -0.09466080367565155, 
  -0.12285861372947693,   -0.05022620037198067,   0.08441098779439926,   0.1156337633728981,   -0.07236459106206894,   0.059379033744335175,   0.08263951539993286,   -0.2162027657032013, 
  0.03416744992136955,   0.16440214216709137,   -0.0504208467900753,   0.11108344793319702,   0.14922264218330383,   -0.020299172028899193,   -0.00422204565256834,   0.010302888229489326, 
  0.1496647447347641,   0.07180247455835342,   0.03183169662952423,   0.13111406564712524,   0.05915812402963638,   -0.05636812373995781,   -0.08175383508205414,   -0.09990254789590836, 
  0.03931840881705284,   0.0071077607572078705,   0.03137380629777908,   -0.029761338606476784,   0.0011142849689349532,   0.044858768582344055,   -0.08571803569793701,   0.0762544795870781, 
  -0.09265855699777603,   -0.15130388736724854,   -0.1516423374414444,   0.016347790136933327,   -0.09689152240753174,   0.08876924216747284,   -0.0735776275396347,   -0.0558549128472805, 
  -0.057433824986219406,   0.015603928826749325,   0.09914136677980423,   0.1550516039133072,   0.17301811277866364,   0.07449959963560104,   -0.028572896495461464,   -0.0794852152466774, 
  0.021367831155657768,   -0.040697675198316574,   0.09305217117071152,   0.10743920505046844,   0.03360714390873909,   0.06160837039351463,   0.04108860716223717,   0.02897721901535988, 
  -0.21359889209270477,   0.1698511838912964,   -0.04042424261569977,   -0.08557796478271484,   0.07129683345556259,   -0.0788821429014206,   -0.024132544174790382,   0.036998435854911804, 
  0.001931136124767363,   0.05034143850207329,   -0.03748529031872749,   0.0360831543803215,   0.07438068836927414,   -0.030785206705331802,   0.036607563495635986,   -0.013735577464103699, 
  0.13033436238765717,   -0.02905861660838127,   -0.03960647061467171,   0.05333780497312546,   0.05868266522884369,   0.13312940299510956,   0.09265171736478806,   0.14042703807353973, 
  -0.0694657564163208,   -0.11639648675918579,   0.0055549973621964455,   -0.20603244006633759,   -0.08990055322647095,   0.0037656526546925306,   -0.21850301325321198,   -0.02204108238220215, 
  -0.05810064449906349,   -0.21049024164676666,   0.3872067630290985,   0.3679311275482178,   0.1778983622789383,   0.0022110934369266033,   -0.010620089247822762,   -0.04170713946223259, 
  0.20577587187290192,   0.12899643182754517,   0.11787255853414536,   0.0685996413230896,   -0.006165795959532261,   -0.08749347180128098,   0.11420054733753204,   -0.16044430434703827, 
  0.09279849380254745,   -0.18091335892677307,   0.004711478017270565,   -0.036008819937705994,   -0.12689153850078583,   -0.17680400609970093,   -0.11173926293849945,   -0.23092900216579437, 
  -0.20606660842895508,   0.020688701421022415,   -0.05803750082850456,   0.13905860483646393,   -0.023925594985485077,   0.12448661774396896,   0.10805533081293106,   0.020537586882710457, 
  -0.09455462545156479,   -0.08044067770242691,   0.042529791593551636,   -0.05727560818195343,   0.13576582074165344,   0.12509962916374207,   0.10165524482727051,   0.04607405886054039, 
  0.019393647089600563,   0.059097617864608765,   0.020304810255765915,   0.0013822175096720457,   0.051216788589954376,   -0.24701565504074097,   -0.032674942165613174,   -0.04856060817837715, 
  0.00010511198343010619,   0.04647482931613922,   0.13383516669273376,   -0.06163322553038597,   -0.5916564464569092,   -0.47135499119758606,   -0.13049456477165222,   0.1220555454492569, 
  0.15781988203525543,   0.07379794120788574,   -0.3447883725166321,   -0.3784831464290619,   -0.487112432718277,   -0.15109415352344513,   0.11788145452737808,   0.06616442650556564, 
  0.06917919218540192,   0.10827496647834778,   0.032885100692510605,   -0.1058773472905159,   0.07567370682954788,   -0.03803078830242157,   0.14787012338638306,   0.0683341920375824, 
  0.11322584748268127,   0.08385276794433594,   0.16679205000400543,   0.091282919049263,   -0.05178740248084068,   0.05582241341471672,   0.042473204433918,   -0.086396224796772, 
  -0.11034322530031204,   -0.028640266507864,   0.1028011292219162,   -0.0008877649088390172,   0.028244338929653168,   -0.07443947345018387,   -0.12242264300584793,   -0.08058731257915497, 
  -0.08334705233573914,   0.008874231949448586,   0.08459696173667908,   0.006540593691170216,   0.1511934995651245,   -0.09864746034145355,   -0.0022757891565561295,   -0.007611424662172794, 
  -0.04845257103443146,   0.04894730821251869,   0.17973744869232178,   0.0270842332392931,   0.06406184285879135,   -0.13181622326374054,   -0.1112910658121109,   -0.009917644783854485, 
  -0.11074915528297424,   0.193734273314476,   -0.06098206713795662,   -0.13928189873695374,   -0.3386763334274292,   -0.3894526958465576,   -0.076139435172081,   0.03680317848920822, 
  0.02531810849905014,   -0.24926665425300598,   -0.19415177404880524,   -0.04121780768036842,   -0.251019686460495,   -0.1419174075126648,   0.103372722864151,   0.09498290717601776, 
  -0.0028649920132011175,   -0.05381111428141594,   0.18186260759830475,   -0.2597678005695343,   -0.11104252189397812,   0.02308914251625538,   0.10925348103046417,   -0.024986127391457558, 
  -0.2220379114151001,   -0.573486328125,   -0.4262819290161133,   0.011817129328846931,   0.027932336553931236,   0.007953207939863205,   0.017538713291287422,   -0.004166166763752699, 
  0.11418763548135757,   0.3622305393218994,   0.1154317557811737,   -0.08427651226520538,   -0.002578676212579012,   -0.13289573788642883,   -0.23212909698486328,   0.011621859855949879, 
  -0.07238899171352386,   -0.13182884454727173,   0.02098708041012287,   0.05876695737242699,   -0.04640847072005272,   -0.05457530915737152,   -0.10623303800821304,   0.039279527962207794, 
  0.08807959407567978,   0.14193661510944366,   -0.10449281334877014,   -0.07375743240118027,   -0.07149310410022736,   -0.08171842247247696,   -0.0625964105129242,   0.145755335688591, 
  -0.03773406520485878,   0.03982318565249443,   0.06593750417232513,   0.01422004122287035,   0.008991748094558716,   0.11244436353445053,   0.08476153761148453,   -0.06018134579062462, 
  0.018519198521971703,   0.11594405770301819,   -0.06717079877853394,   0.014398551546037197,   0.049321677535772324,   0.1813151091337204,   0.034618400037288666,   0.07885569334030151, 
  0.013674687594175339,   -0.07445534318685532,   -0.03171231970191002,   -0.16824695467948914,   -0.011915227398276329,   0.07956662774085999,   0.09536242485046387,   -0.037961043417453766, 
  -0.059846311807632446,   -0.021796155720949173,   0.029116345569491386,   -0.13042385876178741,   0.09620314091444016,   0.031586166471242905,   -0.21204662322998047,   -0.1717437207698822, 
  -0.048901770263910294,   -0.003281400538980961,   -0.021937277168035507,   -0.02089330554008484,   0.01012029591947794,   -0.11780547350645065,   0.003387191565707326,   -0.09802587330341339, 
  0.09765408933162689,   0.09182379394769669,   -0.0077377487905323505,   -0.13636432588100433,   -0.02550388313829899,   0.049113668501377106,   0.02645253762602806,   0.07106875628232956, 
  0.09887101501226425,   -0.09877800941467285,   -0.06546831876039505,   0.043116215616464615,   0.10489563643932343,   -0.14551196992397308,   0.06728830933570862,   -0.04342259094119072, 
  0.07391456514596939,   0.05172665789723396,   0.08550757169723511,   0.10338538885116577,   0.08066938817501068,   -0.07621742784976959,   0.015742775052785873,   -0.1842096894979477, 
  0.0015119101153686643,   -0.00955837219953537,   0.08612173050642014,   -0.019774194806814194,   -0.19463808834552765,   -0.09424695372581482,   0.06460287421941757,   0.06380251795053482, 
  0.07157208770513535,   0.03843400627374649,   -0.003281164448708296,   0.09955119341611862,   0.1584419310092926,   0.029654432088136673,   -0.12742438912391663,   -0.19578170776367188, 
  -0.19496600329875946,   -0.15541882812976837,   0.023484118282794952,   -0.05033668875694275,   0.10843837261199951,   -0.07310277223587036,   0.04308429732918739,   0.23988918960094452, 
  0.003226053901016712,   -0.07501287013292313,   -0.10335861146450043,   0.10799255222082138,   0.049024078994989395,   0.1604393869638443,   0.23237943649291992,   0.012894390150904655, 
  -0.04887322336435318,   -0.05162020027637482,   -0.06853795051574707,   -0.10607689619064331,   0.06932225823402405,   -0.14985577762126923,   0.21794874966144562,   -0.01954581029713154, 
  0.06106986477971077,   0.12801678478717804,   -0.16052192449569702,   -0.21636919677257538,   -0.10733897238969803,   0.1493005007505417,   -0.09166891872882843,   0.05476834997534752, 
  0.09375680238008499,   -0.004177500028163195,   -0.122763492166996,   -0.04428223893046379,   -0.06683797389268875,   -0.033679794520139694,   0.03874822333455086,   0.127513587474823, 
  -0.10525964945554733,   0.09904226660728455,   -0.12811586260795593,   0.07809890061616898,   0.1216808408498764,   -0.0009402547148056328,   0.1352360099554062,   -0.11984425038099289, 
  -0.32995930314064026,   -0.1837782859802246,   0.1713583916425705,   0.027265677228569984,   0.15530641376972198,   0.01452029962092638,   -0.07384056597948074,   0.0178159661591053, 
  -0.023063408210873604,   0.19153006374835968,   0.3437785804271698,   0.1896171271800995,   0.08577410131692886,   0.20912356674671173,   -0.03987065330147743,   0.1235283836722374, 
  0.08767091482877731,   0.23814260959625244,   0.01261548325419426,   -0.14124642312526703,   -0.2153213918209076,   -0.11164110898971558,   0.012023272924125195,   -0.13396768271923065, 
  0.1329067498445511,   0.01605791226029396,   -0.0711398795247078,   -0.09729593992233276,   0.12079738080501556,   0.16015557944774628,   -0.00986793264746666,   0.06855116039514542, 
  0.07980255037546158,   -0.26093190908432007,   -0.06038228049874306,   -0.08687058091163635,   0.11384735256433487,   0.12321572005748749,   -0.013504385016858578,   0.1033400446176529, 
  -0.03691141679883003,   -0.32412412762641907,   0.045400723814964294,   0.0287995096296072,   -0.06087236851453781,   -0.002974482486024499,   0.05475743114948273,   -0.08433913439512253, 
  -0.09580215811729431,   -0.12002606689929962,   -0.09535221010446548,   -0.058133628219366074,   -0.09477563202381134,   -0.12177269905805588,   -0.14574460685253143,   -0.00872558169066906, 
  -0.5039119124412537,   -0.14350156486034393,   0.33246469497680664,   0.233951136469841,   0.29888880252838135,   0.18485896289348602,   -0.19238334894180298,   -0.2322625368833542, 
  -0.08121037483215332,   0.22255925834178925,   0.3016979694366455,   0.2302544116973877,   0.12973660230636597,   -0.18568295240402222,   0.18698740005493164,   0.06293242424726486, 
  0.06285357475280762,   -0.05969419330358505,   -0.10600075870752335,   0.14704078435897827,   0.07342886924743652,   0.13705824315547943,   0.03387419506907463,   -0.0490511879324913, 
  -0.06949219852685928,   -0.2462312877178192,   -0.1388566493988037,   -0.06287430226802826,   -0.001437580562196672,   0.020054498687386513,   0.010107955895364285,   0.06377019733190536, 
  -0.006822516210377216,   0.006812129635363817,   -0.022681668400764465,   -0.03889717534184456,   0.03794119134545326,   0.04083750769495964,   -0.0029788201209157705,   -0.07080311328172684, 
  -0.011101039126515388,   0.03947121649980545,   0.013417611829936504,   -0.2127685695886612,   0.11349654197692871,   0.1319369226694107,   0.10486476868391037,   0.03160322085022926, 
  -0.10601449012756348,   -0.12048308551311493,   -0.11399026960134506,   -0.07660720497369766,   -0.011914636939764023,   0.18713973462581635,   -0.0354386642575264,   -0.3443947732448578, 
  -0.13007812201976776,   -0.2028287798166275,   -0.12066014856100082,   -0.20766109228134155,   -0.06850531697273254,   0.22567404806613922,   -0.1331453174352646,   -0.05323221907019615, 
  -0.03704677149653435,   0.006484927609562874,   -0.29315492510795593,   -0.16754746437072754,   0.01434048730880022,   0.009277652949094772,   0.03483724221587181,   -0.040852125734090805, 
  0.00990209449082613,   -0.07453280687332153,   -0.070258229970932,   -0.15651771426200867,   -0.012805888429284096,   0.0059429919347167015,   0.21765613555908203,   0.0686139166355133, 
  0.088241346180439,   0.07892850041389465,   0.17272506654262543,   0.09425027668476105,   0.03748404607176781,   0.040672630071640015,   0.09425526857376099,   0.10465764254331589, 
  0.17886300384998322,   0.17241479456424713,   0.0009804210858419538,   -0.14368696510791779,   0.07048535346984863,   -0.03005507029592991,   0.15191026031970978,   -0.008513307198882103, 
  -0.05686963349580765,   -0.060763150453567505,   -0.0010080437641590834,   0.06404303014278412,   -0.0594601184129715,   -0.06256689876317978,   -0.12800286710262299,   -0.08018907904624939, 
  -0.09899359196424484,   0.04028932377696037,   0.048632923513650894,   0.11232950538396835,   -0.12859024107456207,   -0.22840364277362823,   -0.0937814936041832,   -0.14099465310573578, 
  0.16516128182411194,   0.21736854314804077,   0.20067788660526276,   0.05216679349541664,   0.018138280138373375,   0.010788732208311558,   0.15027764439582825,   0.012368555180728436, 
  0.007942360825836658,   -0.004342320375144482,   0.030304327607154846,   -0.0157470740377903,   0.03289089351892471,   0.010875364765524864,   -0.11412142962217331,   -0.13347317278385162, 
  -0.022092625498771667,   -0.06945950537919998,   -0.10511888563632965,   0.11617210507392883,   -0.04035460948944092,   -0.1344737857580185,   -0.19333837926387787,   -0.08446276932954788, 
  -0.2304406613111496,   -0.2287622094154358,   -0.010236854664981365,   0.017849275842308998,   0.030124520882964134,   -0.016176821663975716,   -0.04384700953960419,   -0.0400727204978466, 
  -0.04226766154170036,   0.03353496640920639,   -0.0013573764590546489,   -0.019240576773881912,   0.0003075361019000411,   -0.0277779009193182,   0.07529781013727188,   0.19069123268127441, 
  0.09037969261407852,   -0.034065403044223785,   -0.09187328815460205,   0.020412443205714226,   0.0687675029039383,   -0.2847038805484772,   -0.13645534217357635,   -0.05937809497117996, 
  0.007027260959148407,   -0.0575246587395668,   0.010095174424350262,   0.11076328158378601,   -0.11840437352657318,   -0.35149210691452026,   -0.07760707288980484,   0.04354965314269066, 
  0.02635893039405346,   -0.14738118648529053,   -0.002023830311372876,   0.049616243690252304,   0.057564541697502136,   0.00017546396702528,   -0.06486794352531433,   -0.027019722387194633, 
  -0.011518728919327259,   0.0292751993983984,   0.08932618051767349,   0.18074961006641388,   0.06021292507648468,   -0.003228296060115099,   -0.15221956372261047,   -0.289307564496994, 
  -0.07217057049274445,   -0.013291616924107075,   0.13540737330913544,   0.05922536179423332,   -0.04595819115638733,   -0.06769268214702606,   -0.057718902826309204,   -0.11972619593143463, 
  -0.16787856817245483,   -0.04527493193745613,   0.03705804422497749,   -0.06397286057472229,   -0.10082443803548813,   -0.12522664666175842,   0.27021104097366333,   0.3238387405872345, 
  0.18966569006443024,   0.12732189893722534,   -0.1252763420343399,   -0.23917004466056824,   -0.07302599400281906,   0.01848309114575386,   0.2740568518638611,   0.1780032515525818, 
  0.08069825917482376,   -0.07232513278722763,   0.21015030145645142,   0.20119798183441162,   0.14579708874225616,   0.03182879090309143,   -0.010220513679087162,   0.04928576946258545, 
  -0.03347206860780716,   0.2680647373199463,   0.1993291676044464,   0.0745343267917633,   -0.09425990283489227,   -0.19250303506851196,   -0.12752021849155426,   -0.07175004482269287, 
  0.019191443920135498,   0.055478621274232864,   0.0404217392206192,   0.0031089165713638067,   -0.07279758900403976,   0.0477420836687088,   -0.08717342466115952,   -0.07973529398441315, 
  0.024859175086021423,   0.0027893055230379105,   -0.016201786696910858,   -0.009121200069785118,   0.06810367852449417,   0.027000734582543373,   -0.14279308915138245,   -0.024496035650372505, 
  0.05856281518936157,   0.17229154706001282,   -0.007869918830692768,   0.03306275233626366,   0.04083450138568878,   0.09179127961397171,   0.0949752926826477,   -0.0495663583278656, 
  -0.20184941589832306,   -0.34388333559036255,   -0.022561529651284218,   -0.021943489089608192,   0.05488460510969162,   0.1586010903120041,   -0.08679845929145813,   -0.33201563358306885, 
  -0.2377176433801651,   0.1238783746957779,   -0.16434592008590698,   0.03565225750207901,   0.029609957709908485,   -0.1559366136789322,   0.04763326793909073,   0.1398950070142746, 
  0.4734213948249817,   -0.041218943893909454,   0.02567976713180542,   -0.01831045001745224,   -0.0029520741663873196,   0.05467164143919945,   0.06355666369199753,   0.07430721819400787, 
  0.07384324073791504,   -0.007612086832523346,   0.005425965413451195,   -0.1765529364347458,   -0.07815826684236526,   -0.00045105849858373404,   -0.03184372931718826,   0.10181281715631485, 
